{"learner":{"attributes":{"best_iteration":"79","best_ntree_limit":"80","scikit_learn":"{\"use_label_encoder\": false, \"n_estimators\": 80, \"objective\": \"binary:logistic\", \"max_depth\": 20, \"max_leaves\": null, \"max_bin\": null, \"grow_policy\": null, \"learning_rate\": 0.5, \"verbosity\": null, \"booster\": \"dart\", \"tree_method\": null, \"gamma\": null, \"min_child_weight\": null, \"max_delta_step\": null, \"subsample\": null, \"sampling_method\": null, \"colsample_bytree\": 0.5, \"colsample_bylevel\": null, \"colsample_bynode\": null, \"reg_alpha\": null, \"reg_lambda\": null, \"scale_pos_weight\": null, \"base_score\": null, \"missing\": NaN, \"num_parallel_tree\": null, \"random_state\": 24, \"n_jobs\": null, \"monotone_constraints\": null, \"interaction_constraints\": null, \"importance_type\": null, \"gpu_id\": null, \"validate_parameters\": null, \"predictor\": null, \"enable_categorical\": false, \"max_cat_to_onehot\": null, \"eval_metric\": null, \"early_stopping_rounds\": null, \"callbacks\": null, \"classes_\": [0, 1], \"n_classes_\": 2, \"_estimator_type\": \"classifier\"}"},"feature_names":["tenure","MonthlyCharges","TotalCharges","gender_Male","SeniorCitizen_Yes","Partner_Yes","Dependents_Yes","PhoneService_Yes","MultipleLines_Nophoneservice","MultipleLines_Yes","InternetService_Fiberoptic","InternetService_No","OnlineSecurity_Nointernetservice","OnlineSecurity_Yes","OnlineBackup_Nointernetservice","OnlineBackup_Yes","DeviceProtection_Nointernetservice","DeviceProtection_Yes","TechSupport_Nointernetservice","TechSupport_Yes","StreamingTV_Nointernetservice","StreamingTV_Yes","StreamingMovies_Nointernetservice","StreamingMovies_Yes","Contract_Oneyear","Contract_Twoyear","PaperlessBilling_Yes","PaymentMethod_Creditcardautomatic","PaymentMethod_Electroniccheck","PaymentMethod_Mailedcheck"],"feature_types":["float","float","float","float","float","float","float","float","float","float","float","float","float","float","float","float","float","float","float","float","float","float","float","float","float","float","float","float","float","float"],"gradient_booster":{"gbtree":{"model":{"gbtree_model_param":{"num_parallel_tree":"1","num_trees":"80","size_leaf_vector":"0"},"tree_info":[0,0,0,0,0,0,0,0,0,0,0,0,0,0,0,0,0,0,0,0,0,0,0,0,0,0,0,0,0,0,0,0,0,0,0,0,0,0,0,0,0,0,0,0,0,0,0,0,0,0,0,0,0,0,0,0,0,0,0,0,0,0,0,0,0,0,0,0,0,0,0,0,0,0,0,0,0,0,0,0],"trees":[{"base_weights":[-0E0,-9.2751676E-1,9.746121E-1,-1.4537903E-2,-1.3607125E0,1.9894875E0,6.012506E-1,-7.120419E-1,4.4102564E-1,-9.9830794E-1,-1.8623962E0,1.1121144E0,-3.0238727E-1,1.21212125E-1,-1.1338583E0,8.3987916E-1,-7.751938E-2,-1.0710572E0,1.75E0,-1.9145527E0,-1.3877552E0,1.5126051E-1,1.316895E0,-1.3176471E0,-6.802721E-3,-4.3037975E-1,8.77193E-1,-1.4285715E-1,-1.2347826E0,2.3853211E-1,1.1150442E0,-5.240642E-1,1.04E0,-1.5585586E0,-7.619048E-1,-5.555556E-1,-1.7575758E0,9.444444E-1,-1.882353E-1,1.3650794E0,-7.1428573E-1,-1.5698925E0,-9.62963E-1,4.4011143E-1,-6.9527894E-1,1.0909091E-1,-1.4285715E0,1.2432432E0,1.6666667E-1,4E-1,-1E0,-8.5714287E-1,-1.6296296E0,-5.1282052E-2,8.5714287E-1,1.7894737E0,9.583333E-1,-2.2222222E-1,-1.4042553E0,1.2238806E0,-3.3333334E-1,-1.6491228E0,-6.938776E-1,1.8E0,-9.0855455E-1,2.857143E-1,-1.3684211E0,-7.692308E-1,1.2380953E0,1.438849E-2,-9.714286E-1,1.0422535E0,1.568567E0,9.0909094E-1,-1.4285715E0,3.3333334E-1,-1.1232877E0,-1E0,6.539683E-1,1.4666667E0,-8.288288E-1,-5E-1,8.148148E-1,1.5151515E0,-5E-1,1.1111112E0,-3.1578946E-1,-1.8181819E-1,7.692308E-1,-1.0769231E0,1.3846154E0,-9.230769E-1,-1.7674419E0,1.21212125E-1,-7.5E-1,1.1111112E0,-0E0,6.530612E-1,1.2244898E0,-3.7037036E-1,1.3846154E0,-8.333333E-1,-1.7037038E0,1.3898305E0,-0E0,-1E0,5E-1,-1.1111112E0,-1.713467E0,6.666667E-1,-9.0909094E-1,-6.9076306E-1,-1.4782609E0,-4E-1,6.666667E-1,-1E0,-2.2222222E-1,8.5714287E-1,1.68E0,3.043478E-1,-5.0980395E-1,2.0224719E-1,1.2492669E0,1.9673469E0,1.3137255E0,1E0,-5E-1,-4E-1,-1.2982457E0,-5E-1,-1.2857143E0,1.0338165E0,-7.1428575E-2,-4.7328246E-1,-1.2842106E0,-1.6666667E-1,-1E0,-6.666667E-1,1.2727273E0,-5.4545456E-1,-0E0,1.8181819E-1,-1.1636363E0,-1.5384616E-1,-1.2941177E0,-2.6086956E-1,8.333333E-1,-9.0909094E-1,-2.2222222E-1,1.3043479E0,-0E0,5E-1,-5E-1,9.302326E-1,-1E0,1.3253012E0,5.263158E-1,-1.2844037E-1,-1.2E0,-2.857143E-1,-1.1428572E0,-2.5E-1,-1.3333334E0,-1.8661088E0,-1.3333334E0,3.3333334E-1,-1.2222222E0,-8.092243E-1,1.68E0,-1.735849E0,-1.0731708E0,1.8181819E-1,1E0,1.5555556E0,-3.1578946E-1,-2.4561404E-1,1.0769231E0,-8.4210527E-1,3.529412E-1,1.1428572E0,-5.882353E-1,1.3354633E0,2.5E-1,1.409836E0,4.347826E-1,-1.2E0,2.857143E-1,-1.5151515E0,-8.5714287E-1,1.3333334E-1,-1.0769231E0,-1.4545455E0,-4E-1,6.2068963E-1,1.8787879E0,6.666667E-1,-4.4155845E-1,-1.0714285E0,-2.5316456E-2,-1.6756756E0,-9.677419E-1,-8E-1,2.2222222E-1,-1.2475247E0,-1.5384616E-1,-1E0,6.666667E-1,5.4054055E-2,-1.0769231E0,3.3333334E-1,1E0,6.865672E-1,1.4782609E0,1.5087719E0,8E-1,-0E0,9.0909094E-1,6.741573E-2,-8.333333E-1,-1.3846154E0,-0E0,-6.666667E-1,2.2222222E-1,-8E-1,4E-1,2.2222222E-1,-1.5675676E0,-9.5384616E-1,-1.6981132E0,5E-1,-0E0,-1.375E0,-0E0,-1.7037038E0,-6.885246E-1,-9.52381E-2,-1.323077E0,-8E-1,1.5384616E-1,4.8780486E-2,-8E-1,1.4782609E0,4E-1,-1.3333334E0,-5.3333336E-1,1E0,-6.666667E-1,1.6190476E0,5.6E-1,1.1111112E0,-8.695652E-1,1.6923077E0,1.1681416E0,-8E-1,6.1538464E-1,1.6862745E0,1.18894E0,9.230769E-1,-1.6666667E-1,-4E-1,1E0,-3.1578946E-1,-1.3846154E0,5.4545456E-1,-5E-1,1E0,2.7160493E-1,1.2727273E0,-9.52381E-2,-1.0769231E0,1.904762E-1,-6.2068963E-1,-1.3548387E0,4.864865E-1,-4.347826E-1,-0E0,-1.2E0,-5E-1,5.714286E-1,-5E-1,2.2222222E-1,-2.5E-1,1.1111112E0,-0E0,5E-1,4.3137255E-1,1.2E0,1.0769231E0,-5E-1,5E-1,-5E-1,-1.5E-1,1.3846154E0,-1.2941177E0,1.8181819E-1,-0E0,-1.6363636E0,-1.5E0,-5.777778E-1,-4E-1,-1.8297873E0,-3.2380953E-1,-1.0226245E0,2.857143E-1,-5.4545456E-1,-9.767442E-1,-1.6923077E0,1E0,-6.666667E-1,-4.347826E-1,5.4545456E-1,-1.1111112E0,-4E-1,-4E-1,8.5714287E-1,-1.6666667E-1,-1.2E0,-1E0,1.0476191E0,-2.6086956E-1,-1.2592592E0,1.7241379E0,5E-1,-1.1111112E0,1.239819E0,9.3333334E-1,1.3333334E-1,1.7260274E0,5.4545456E-1,4.9056605E-1,1.3809524E0,4.4444445E-1,1.3333334E0,-9.3333334E-1,7.692308E-1,-5.714286E-1,2.2222222E-1,5.217391E-1,1.6923077E0,-9.0909094E-1,4.3243244E-1,8E-1,-6.666667E-1,-1.2307693E0,-5.882353E-1,5.555556E-1,-1.2E0,-0E0,-1.0588236E0,-2.4E-1,1.5E0,-7.058824E-1,2.5E-1,-5.4545456E-1,6.666667E-1,-6.666667E-1,-1.5555556E0,6.666667E-1,-5.185185E-1,8.5714287E-1,-4E-1,-2.7027026E-1,8E-1,-1.1764706E-1,-1.4666667E0,-2.9850746E-2,-8E-1,-1.4728682E0,-3.75E-1,-2.2222222E-1,6.666667E-1,-1.1578947E0,2.2222222E-1,6.666667E-1,-8.888889E-1,-1.5384616E-1,1.0769231E0,2.2222222E-1,-8E-1,2.2222222E-1,1.1111112E0,-1.2E0,4.4444445E-1,1.3333334E0,4.6153846E-1,-7.692308E-1,2.857143E-1,-1.8181819E-1,-1.6E0,8.333333E-1,1.503876E0,1.2727273E0,-0E0,-1.8181819E-1,5E-1,5E-1,1.7464789E0,1.1428572E0,-2.0689656E-1,1.6888889E0,9.756098E-1,-0E0,6.666667E-1,-2.2222222E-1,-1.2E0,-0E0,1.1111112E0,-1E0,-0E0,6.666667E-1,-5E-1,1E0,8E-2,-0E0,-7.692308E-1,-4E-1,1.04E0,5.4545456E-1,-6.666667E-1,4.6153846E-1,-7.5E-1,2.2222222E-1,-8.965517E-1,-1E0,1E0,-1.2E0,-0E0,-2.6086956E-1,-1E0,-0E0,9.677419E-1,-7.692308E-1,1.8181819E-1,-5E-1,3.6363637E-1,-4.2857143E-1,8E-1,-2.2950819E-1,1.5E0,-1E-1,-1.3636364E0,7.692308E-2,-8.333333E-1,-6E-1,-1.4545455E0,-0E0,-1.1428572E0,2.2222222E-1,-5E-1,7.692308E-1,-2.2222222E-1,-5E-1,1.1111112E0,-0E0,-1.1111112E0,-2.2222222E-1,6.666667E-1,5.3521127E-1,1.4482758E0,1.6781609E0,1.0434783E0,-0E0,1.4545455E0,5.714286E-1,-7.368421E-1,7.5E-1,1.7948718E0,-4E-1,1.1052631E0,1E0,-0E0,1.6666667E-1,1.0909091E0,2.857143E-1,1.3333334E0,-9.0909094E-1,3.255814E-1,-0E0,-1.1111112E0,-9.0909094E-1,5E-1,1.3333334E0,1.8181819E-1,6.666667E-1,-0E0,-9.0909094E-1,-2.2222222E-1,-1.1666666E0,2.2222222E-1,-5.4545456E-1,6.666667E-1,-5E-1,1.8181819E-1,1.1578947E0,5E-1,-1E0,-2.2222222E-1,-6.956522E-1,2.857143E-1,1.2E0,-2.5E-1,-7.826087E-1,6.666667E-1,1.2903225E-1,-5.625E-1,-1.0476191E0,7.826087E-1,-1.5E0,-0E0,-1.2765957E-1,1.1111112E0,-2.4E-1,-1.2592592E0,-9.3333334E-1,2.2222222E-1,1.1111112E0,-0E0,6.865672E-1,-1E0,-0E0,1.2631578E0,-0E0,8E-1,-0E0,-9.3333334E-1,1.2727273E0,-2.2222222E-1,1.3220339E0,2.857143E-1,-3.1578946E-1,1.1111112E0,1.4666667E0,1.8181819E-1,1E0,-4E-1,7.058824E-1,-7.692308E-1,-8E-1,-0E0,6.666667E-1,-0E0,-0E0,-1.0666667E0,1E0,-4E-1,-8E-1,4E-1,-2.5E-1,-1.2727273E0,-1.0909091E-1,1.2727273E0,2.5E-1,-7.692308E-1,-1.8181819E-1,-1.4285715E0,1.0769231E0,2.857143E-1,-4.827586E-1,3.6363637E-1,-6.666667E-1,5.4545456E-1,-1.4782609E0,-0E0,8.4745765E-1,-3.3333334E-1,1.3939394E0,2.2222222E-1,2.2222222E-1,1.4074074E0,-4E-1,6.666667E-1,1.5384616E-1,-8E-1,-1.5384616E-1,1.04E0,-1E0,-2.2222222E-1,-0E0,1E0,-5E-1,1E0,-8E-1,4E-1,3.030303E-1,-6.1538464E-1,-2.2222222E-1,5.4545456E-1,1.8181819E-1,-9.3333334E-1,-4E-1,1E0,-9.4736844E-1,2.857143E-1,1.1428572E0,-6.666667E-1,-0E0,-1E0,4.864865E-1,1.2307693E0,-5E-1,-0E0,1.2727273E0,-5E-1,-5E-1,6.666667E-1,5E-1,-6.666667E-1,4.6153846E-1,1.25E0,-6.666667E-1,-0E0,-5E-1,8.5714287E-1,-1E0,4E-1,-1.1351352E0,-0E0,-1.3333334E0,-1.8181819E-1,6.666667E-1,-2.2222222E-1,6.666667E-1,-5E-1,1.4E0,4E-1,-0E0,6.666667E-1,-0E0,-1E0,-1.8181819E-1,-6.666667E-1,1.2727273E0,2.857143E-1,-1.3333334E0,-3.3333334E-1,-1.2727273E0,-0E0,5E-1,-5E-1,1.1111112E0,1.0526316E-1,-2.2222222E-1,6.666667E-1,-5E-1,-0E0,-1.5555556E0,-7.368421E-1,-0E0,1.4285715E0,-1.3333334E-1,5E-1,-8.5714287E-1,-2.2222222E-1,5E-1,-5.4545456E-1],"categories":[],"categories_nodes":[],"categories_segments":[],"categories_sizes":[],"default_left":[1,1,1,1,1,0,1,1,1,1,1,1,1,1,1,1,1,1,0,0,1,1,1,1,1,1,1,1,1,1,1,1,1,1,1,1,0,1,1,1,1,0,1,1,1,1,0,1,1,1,0,1,1,1,1,0,1,1,1,1,1,1,1,0,1,1,0,1,1,1,0,1,1,0,0,1,1,1,1,0,1,1,1,0,0,0,1,0,0,1,0,1,0,1,1,1,1,1,1,1,0,1,0,0,0,0,0,1,1,0,1,1,1,0,1,0,0,1,0,1,1,1,1,0,1,0,0,1,1,1,1,1,1,1,1,1,0,0,0,0,0,0,1,1,0,1,1,0,0,0,0,0,0,1,0,1,1,1,1,1,0,1,1,0,1,1,1,1,0,0,1,0,0,0,1,1,1,1,1,1,1,1,1,1,1,0,1,0,1,1,0,0,0,1,0,1,1,1,1,0,1,0,1,0,1,0,0,1,0,1,0,1,0,0,1,1,0,1,1,1,0,0,0,0,0,0,0,1,1,0,0,0,0,0,1,1,1,0,1,1,1,0,1,0,1,0,0,0,1,0,1,1,1,0,1,1,1,1,1,0,0,1,0,0,0,1,1,0,1,1,1,1,0,1,1,1,1,0,0,0,0,1,0,0,0,1,0,0,0,0,0,1,0,0,0,0,0,0,1,0,0,1,1,1,0,1,0,0,0,1,1,0,1,0,1,1,0,0,1,1,1,0,0,0,1,1,1,1,0,1,1,1,0,1,1,1,0,1,0,0,1,0,0,0,1,1,0,1,0,1,0,1,1,0,0,1,0,0,1,1,1,1,0,1,0,1,1,0,1,0,0,1,0,0,1,1,0,0,0,0,0,0,1,0,1,1,1,0,0,1,1,0,0,0,0,0,0,1,1,1,1,0,1,0,0,0,0,0,0,1,0,1,1,0,1,1,1,0,0,1,1,0,1,0,0,0,1,1,0,0,1,1,0,1,1,1,0,1,0,1,1,1,1,1,0,0,0,0,0,1,0,0,0,0,0,0,0,1,0,0,1,0,0,1,1,1,0,0,1,0,0,1,1,1,0,0,1,0,0,0,0,0,0,0,0,0,0,0,0,0,0,1,0,0,1,0,0,1,1,0,1,1,0,1,1,1,1,0,0,1,0,1,1,0,0,0,0,1,0,0,1,0,0,0,0,0,0,1,1,1,0,0,0,0,0,1,1,0,0,1,0,1,0,0,0,0,0,1,0,1,0,1,1,0,0,0,1,1,1,1,0,0,0,1,1,0,0,0,0,0,1,1,0,1,1,0,0,0,0,1,0,0,0,1,1,0,0,0,1,0,0,1,1,0,0,0,0,1,1,0,0,0,0,0,0,0,0,1,0,1,0,1,1,1,0,1,1,0,0,0,0,1,0,0,0,0,0,0,0,0,0,0,1,0,1,1,0,0,0,1,1,0,0,0,0,0,1,0,0,1,0,0,0,0,0],"id":0,"left_children":[1,3,5,7,9,-1,11,13,15,17,19,21,23,25,27,29,31,33,-1,-1,35,37,39,41,43,45,47,49,51,53,55,57,59,61,63,65,-1,67,69,71,73,-1,75,77,79,81,-1,83,85,87,-1,89,91,93,95,-1,97,99,101,103,105,107,109,-1,111,113,-1,115,117,119,-1,121,123,-1,-1,125,127,129,131,-1,133,135,137,-1,-1,-1,139,-1,-1,141,-1,143,-1,145,147,149,151,153,155,157,-1,159,-1,-1,-1,-1,-1,161,163,-1,165,167,169,-1,171,-1,-1,173,-1,175,177,179,181,-1,183,-1,-1,185,187,189,191,193,195,197,199,201,-1,-1,-1,-1,-1,-1,203,205,-1,207,209,-1,-1,-1,-1,-1,-1,211,-1,213,215,217,219,221,-1,223,225,-1,227,229,231,233,-1,-1,235,-1,-1,-1,237,239,241,243,245,247,249,251,253,255,257,-1,259,-1,261,263,-1,-1,-1,265,-1,267,269,271,273,-1,275,-1,277,-1,279,-1,-1,281,-1,283,-1,285,-1,-1,287,289,-1,291,293,295,-1,-1,-1,-1,-1,-1,-1,297,299,-1,-1,-1,-1,-1,301,303,305,-1,307,309,311,-1,313,-1,315,-1,-1,-1,317,-1,319,321,323,-1,325,327,329,331,333,-1,-1,335,-1,-1,-1,337,339,-1,341,343,345,347,-1,349,351,353,355,-1,-1,-1,-1,357,-1,-1,-1,359,-1,-1,-1,-1,-1,361,-1,-1,-1,-1,-1,-1,363,-1,-1,365,367,369,-1,371,-1,-1,-1,373,375,-1,377,-1,379,381,-1,-1,383,385,387,-1,-1,-1,389,391,393,395,-1,397,399,401,-1,403,405,407,-1,409,-1,-1,411,-1,-1,-1,413,415,-1,417,-1,419,-1,421,423,-1,-1,425,-1,-1,427,429,431,433,-1,435,-1,437,439,-1,441,-1,-1,443,-1,-1,445,447,-1,-1,-1,-1,-1,-1,449,-1,451,453,455,-1,-1,457,459,-1,-1,-1,-1,-1,-1,461,463,465,467,-1,469,-1,-1,-1,-1,-1,-1,471,-1,473,475,-1,477,479,481,-1,-1,483,485,-1,487,-1,-1,-1,489,491,-1,-1,493,495,-1,497,499,501,-1,503,-1,505,507,509,511,513,-1,-1,-1,-1,-1,515,-1,-1,-1,-1,-1,-1,-1,517,-1,-1,519,-1,-1,521,523,525,-1,-1,527,-1,-1,529,531,533,-1,-1,535,-1,-1,-1,-1,-1,-1,-1,-1,-1,-1,-1,-1,-1,-1,537,-1,-1,539,-1,-1,541,543,-1,545,547,-1,549,551,553,555,-1,-1,557,-1,559,561,-1,-1,-1,-1,563,-1,-1,565,-1,-1,-1,-1,-1,-1,567,569,571,-1,-1,-1,-1,-1,573,575,-1,-1,577,-1,579,-1,-1,-1,-1,-1,581,-1,583,-1,585,587,-1,-1,-1,589,591,593,595,-1,-1,-1,597,599,-1,-1,-1,-1,-1,601,603,-1,605,607,-1,-1,-1,-1,609,-1,-1,-1,611,613,-1,-1,-1,615,-1,-1,617,619,-1,-1,-1,-1,621,623,-1,-1,-1,-1,-1,-1,-1,-1,625,-1,627,-1,629,631,633,-1,635,637,-1,-1,-1,-1,639,-1,-1,-1,-1,-1,-1,-1,-1,-1,-1,641,-1,643,645,-1,-1,-1,647,649,-1,-1,-1,-1,-1,651,-1,-1,653,-1,-1,-1,-1,-1],"loss_changes":[1.3143711E3,2.9462665E2,2.6745483E2,7.6814125E1,9.000159E1,0E0,2.4027155E2,3.3703793E1,3.0313044E1,6.095581E1,2.5602417E0,6.517572E1,5.6558968E1,1.4138292E1,6.174629E0,1.3426647E1,3.2731976E1,4.229303E1,0E0,0E0,6.563801E0,1.6200092E1,2.7767303E1,2.290619E0,4.5536396E1,1.0791122E1,3.499052E0,3.6571429E0,7.1769943E0,4.9293947E0,4.2565994E0,1.210842E1,5.142885E0,7.548004E0,6.8698364E1,6.5455313E0,0E0,1.0010378E1,6.7584553E0,1.5953949E1,9.415585E0,0E0,4.5829525E0,2.8294962E1,1.8033993E1,6.3178453E0,0E0,5.1420965E0,3.0847952E0,1.2139859E0,0E0,1.701099E1,9.9754333E-1,2.441142E0,1.9047618E0,0E0,3.1003418E0,9.082622E0,5.890446E-1,3.4019737E0,2.1666667E0,1.5492859E0,4.19295E0,0E0,2.0009964E1,1.6380951E0,0E0,1.880343E-1,1.2114296E0,5.4369664E0,0E0,1.8266891E1,1.3904205E1,0E0,0E0,2.1666667E0,1.7901459E0,1.0714283E0,2.177267E1,0E0,8.378174E0,1.1666667E0,5.4276094E0,0E0,0E0,0E0,3.444976E-1,0E0,0E0,3.4041939E0,0E0,1.6561084E0,0E0,4.706851E0,1.3383842E-1,1.449276E0,1E0,1.2155671E1,1.0268745E0,6.6199117E0,0E0,6.904764E-1,0E0,0E0,0E0,0E0,0E0,2.25E0,2.574463E0,0E0,4.6868687E0,3.6324524E1,2.9370804E0,0E0,4.2424238E-1,0E0,0E0,9.092732E0,0E0,1.0036906E1,3.9525285E0,1.7215939E1,7.0089874E0,0E0,8.003555E0,0E0,0E0,3.0857143E0,6.47068E-2,2.3358974E0,4.649353E-1,1.6898762E1,7.943723E0,8.748209E0,1.3206787E0,1.6555556E0,0E0,0E0,0E0,0E0,0E0,0E0,2.1375923E0,2.9230769E0,0E0,3.0136492E0,1.6666698E-1,0E0,0E0,0E0,0E0,0E0,0E0,1.8560886E0,0E0,7.9281235E-1,9.569378E-1,3.818249E0,1.6615381E0,8.253969E-1,0E0,1.75E0,4.1741753E0,0E0,2.3254929E0,1.6666666E-1,1.6805553E0,1.17015915E1,0E0,0E0,4.884016E0,0E0,0E0,0E0,1.203239E0,2.364741E0,2.0575247E0,7.29825E-1,3.4705882E0,2.007619E0,7.061665E0,2.695282E0,3.5615387E0,3.5825043E0,3.5312152E0,0E0,2.1142857E0,0E0,1.5615964E0,1.251515E0,0E0,0E0,0E0,4.528311E0,0E0,4.6233764E0,7.9353986E0,9.4748116E-1,4.350444E0,0E0,3.4838705E0,0E0,1.420635E0,0E0,5.3418803E-1,0E0,0E0,3.2507505E0,0E0,1.6666666E-1,0E0,1.6770263E0,0E0,0E0,3.2384615E0,1E0,0E0,6.579645E0,3.0418897E0,2.2657347E0,0E0,0E0,0E0,0E0,0E0,0E0,0E0,2.4709406E0,1.5328827E0,0E0,0E0,0E0,0E0,0E0,1.2676487E1,1.056277E0,4.25045E-1,0E0,2.9230769E0,2.6989298E0,1.7777753E-1,0E0,2.1714287E0,0E0,1.6333332E0,0E0,0E0,0E0,5.8019047E0,0E0,2.399356E0,1.3275146E-3,1.060804E1,0E0,8.717947E-1,7.9319763E-1,6.5972824E0,6.8376064E-1,5.023077E0,0E0,0E0,7.8028417E-1,0E0,0E0,0E0,4.745819E0,4.2383595E0,0E0,3.2190475E0,9.049416E-3,5.996825E0,1.9716022E0,0E0,7.1708107E0,2.3113813E0,1.8181818E0,1.333334E0,0E0,0E0,0E0,0E0,2.3148148E0,0E0,0E0,0E0,4.8560224E0,0E0,0E0,0E0,0E0,0E0,2.5013514E0,0E0,0E0,0E0,0E0,0E0,0E0,4.428758E0,0E0,0E0,7.3250895E0,1.55579605E1,8.253969E-1,0E0,2.5921392E0,0E0,0E0,0E0,3.4685988E0,2.2097902E0,0E0,1.1111112E0,0E0,3.174603E-1,4.322222E0,0E0,0E0,2.6373672E-1,1.8174869E0,2.1872053E0,0E0,0E0,0E0,4.6770477E0,1.1878788E0,5.2424246E-1,4.19693E-2,0E0,6.264523E0,3.5947342E0,4.4444448E-1,0E0,4.4444442E-1,8.547008E-1,8.571428E-1,0E0,2.0362318E0,0E0,0E0,3.6205404E0,0E0,0E0,0E0,4.5248866E-1,4.5822225E0,0E0,1.8181818E0,0E0,2.5823078E0,0E0,1.703403E0,4.75E0,0E0,0E0,2.4E0,0E0,0E0,5.7648945E-1,8.294935E-1,1.2139859E0,2.8759217E0,0E0,2.7680671E0,0E0,1.0576707E1,7.754546E0,0E0,5.0352564E0,0E0,0E0,6.99522E-1,0E0,0E0,1.0158732E0,5.3418803E-1,0E0,0E0,0E0,0E0,0E0,0E0,1.1452992E0,0E0,2.58547E0,8.547008E-1,8.253969E-1,0E0,0E0,3.6247387E0,8.3662415E-1,0E0,0E0,0E0,0E0,0E0,0E0,2.4935064E0,3.41146E0,8.927307E-1,4.0983295E0,0E0,6.666666E-1,0E0,0E0,0E0,0E0,0E0,0E0,2.0454545E0,0E0,1.2857141E0,3.332262E0,0E0,8.547008E-1,2.172727E0,1.3309088E0,0E0,0E0,3.076923E-1,1.3383842E-1,0E0,2.4501915E0,0E0,0E0,0E0,1.8181818E0,6.9960475E-1,0E0,0E0,1.1035633E-1,1.880343E-1,0E0,2.3509316E0,3.1227272E0,3.2360249E0,0E0,3.714007E0,0E0,9.183643E0,2.045454E0,2.892344E0,2.7303705E0,1.5777779E0,0E0,0E0,0E0,0E0,0E0,8.547008E-1,0E0,0E0,0E0,0E0,0E0,0E0,0E0,4.811016E0,0E0,0E0,2.636156E0,0E0,0E0,4.5714283E-1,6.8771935E-1,2.3156567E0,0E0,0E0,2.9977074E0,0E0,0E0,3.0847952E0,1.6121211E0,2.1142857E0,0E0,0E0,5.018836E0,0E0,0E0,0E0,0E0,0E0,0E0,0E0,0E0,0E0,0E0,0E0,0E0,0E0,0E0,6E-1,0E0,0E0,3.3333337E-1,0E0,0E0,2.9681163E0,2.1142857E0,0E0,1.75E0,1.1828063E0,0E0,4.360117E0,2.8798075E0,1.4718614E0,5.3320575E-1,0E0,0E0,2.2254384E0,0E0,2.4581819E0,1.8615131E0,0E0,0E0,0E0,0E0,3.0310311E0,0E0,0E0,9.8351955E-1,0E0,0E0,0E0,0E0,0E0,0E0,1.0721893E0,1.6380951E0,1.203239E0,0E0,0E0,0E0,0E0,0E0,2.6016288E0,1.880343E-1,0E0,0E0,6.666666E-1,0E0,3E0,0E0,0E0,0E0,0E0,0E0,1.75E0,0E0,3.0554779E0,0E0,6.792929E-1,2.1986017E0,0E0,0E0,0E0,2.1142857E0,2.8592167E0,5.1774893E0,1E0,0E0,0E0,0E0,1.4421225E0,1.6666666E-1,0E0,0E0,0E0,0E0,0E0,3.287879E0,1.4230769E0,0E0,1.4230769E0,1.8230724E-1,0E0,0E0,0E0,0E0,3.3333337E-1,0E0,0E0,0E0,4.0995674E0,2.9384615E0,0E0,0E0,0E0,2.1189184E0,0E0,0E0,1.1610847E0,8.253969E-1,0E0,0E0,0E0,0E0,1.9774778E0,3.538456E-1,0E0,0E0,0E0,0E0,0E0,0E0,0E0,0E0,3.076923E-1,0E0,6.666666E-1,0E0,9.090912E-2,8.831167E-1,6.66667E-1,0E0,1.4447174E0,1E0,0E0,0E0,0E0,0E0,1.94152E0,0E0,0E0,0E0,0E0,0E0,0E0,0E0,0E0,0E0,0E0,8.253969E-1,0E0,1.6666666E-1,1.0420036E-1,0E0,0E0,0E0,1.5873017E0,5.140351E-1,0E0,0E0,0E0,0E0,0E0,1.03592396E-1,0E0,0E0,1.251515E0,0E0,0E0,0E0,0E0,0E0],"parents":[2147483647,0,0,1,1,2,2,3,3,4,4,6,6,7,7,8,8,9,9,10,10,11,11,12,12,13,13,14,14,15,15,16,16,17,17,20,20,21,21,22,22,23,23,24,24,25,25,26,26,27,27,28,28,29,29,30,30,31,31,32,32,33,33,34,34,35,35,37,37,38,38,39,39,40,40,42,42,43,43,44,44,45,45,47,47,48,48,49,49,51,51,52,52,53,53,54,54,56,56,57,57,58,58,59,59,60,60,61,61,62,62,64,64,65,65,67,67,68,68,69,69,71,71,72,72,75,75,76,76,77,77,78,78,80,80,81,81,82,82,86,86,89,89,91,91,93,93,94,94,95,95,96,96,97,97,98,98,99,99,101,101,107,107,108,108,110,110,111,111,112,112,114,114,117,117,119,119,120,120,121,121,122,122,124,124,127,127,128,128,129,129,130,130,131,131,132,132,133,133,134,134,135,135,142,142,143,143,145,145,146,146,153,153,155,155,156,156,157,157,158,158,159,159,161,161,162,162,164,164,165,165,166,166,167,167,170,170,174,174,175,175,176,176,177,177,178,178,179,179,180,180,181,181,182,182,183,183,184,184,186,186,188,188,189,189,193,193,195,195,196,196,197,197,198,198,200,200,202,202,204,204,207,207,209,209,211,211,214,214,215,215,217,217,218,218,219,219,227,227,228,228,234,234,235,235,236,236,238,238,239,239,240,240,242,242,244,244,248,248,250,250,251,251,252,252,254,254,255,255,256,256,257,257,258,258,261,261,265,265,266,266,268,268,269,269,270,270,271,271,273,273,274,274,275,275,276,276,281,281,285,285,291,291,298,298,301,301,302,302,303,303,305,305,309,309,310,310,312,312,314,314,315,315,318,318,319,319,320,320,324,324,325,325,326,326,327,327,329,329,330,330,331,331,333,333,334,334,335,335,337,337,340,340,344,344,345,345,347,347,349,349,351,351,352,352,355,355,358,358,359,359,360,360,361,361,363,363,365,365,366,366,368,368,371,371,374,374,375,375,382,382,384,384,385,385,386,386,389,389,390,390,397,397,398,398,399,399,400,400,402,402,409,409,411,411,412,412,414,414,415,415,416,416,419,419,420,420,422,422,426,426,427,427,430,430,431,431,433,433,434,434,435,435,437,437,439,439,440,440,441,441,442,442,443,443,449,449,457,457,460,460,463,463,464,464,465,465,468,468,471,471,472,472,473,473,476,476,491,491,494,494,497,497,498,498,500,500,501,501,503,503,504,504,505,505,506,506,509,509,511,511,512,512,517,517,520,520,527,527,528,528,529,529,535,535,536,536,539,539,541,541,547,547,549,549,551,551,552,552,556,556,557,557,558,558,559,559,563,563,564,564,570,570,571,571,573,573,574,574,579,579,583,583,584,584,588,588,591,591,592,592,597,597,598,598,607,607,609,609,611,611,612,612,613,613,615,615,616,616,621,621,632,632,634,634,635,635,639,639,640,640,646,646,649,649],"right_children":[2,4,6,8,10,-1,12,14,16,18,20,22,24,26,28,30,32,34,-1,-1,36,38,40,42,44,46,48,50,52,54,56,58,60,62,64,66,-1,68,70,72,74,-1,76,78,80,82,-1,84,86,88,-1,90,92,94,96,-1,98,100,102,104,106,108,110,-1,112,114,-1,116,118,120,-1,122,124,-1,-1,126,128,130,132,-1,134,136,138,-1,-1,-1,140,-1,-1,142,-1,144,-1,146,148,150,152,154,156,158,-1,160,-1,-1,-1,-1,-1,162,164,-1,166,168,170,-1,172,-1,-1,174,-1,176,178,180,182,-1,184,-1,-1,186,188,190,192,194,196,198,200,202,-1,-1,-1,-1,-1,-1,204,206,-1,208,210,-1,-1,-1,-1,-1,-1,212,-1,214,216,218,220,222,-1,224,226,-1,228,230,232,234,-1,-1,236,-1,-1,-1,238,240,242,244,246,248,250,252,254,256,258,-1,260,-1,262,264,-1,-1,-1,266,-1,268,270,272,274,-1,276,-1,278,-1,280,-1,-1,282,-1,284,-1,286,-1,-1,288,290,-1,292,294,296,-1,-1,-1,-1,-1,-1,-1,298,300,-1,-1,-1,-1,-1,302,304,306,-1,308,310,312,-1,314,-1,316,-1,-1,-1,318,-1,320,322,324,-1,326,328,330,332,334,-1,-1,336,-1,-1,-1,338,340,-1,342,344,346,348,-1,350,352,354,356,-1,-1,-1,-1,358,-1,-1,-1,360,-1,-1,-1,-1,-1,362,-1,-1,-1,-1,-1,-1,364,-1,-1,366,368,370,-1,372,-1,-1,-1,374,376,-1,378,-1,380,382,-1,-1,384,386,388,-1,-1,-1,390,392,394,396,-1,398,400,402,-1,404,406,408,-1,410,-1,-1,412,-1,-1,-1,414,416,-1,418,-1,420,-1,422,424,-1,-1,426,-1,-1,428,430,432,434,-1,436,-1,438,440,-1,442,-1,-1,444,-1,-1,446,448,-1,-1,-1,-1,-1,-1,450,-1,452,454,456,-1,-1,458,460,-1,-1,-1,-1,-1,-1,462,464,466,468,-1,470,-1,-1,-1,-1,-1,-1,472,-1,474,476,-1,478,480,482,-1,-1,484,486,-1,488,-1,-1,-1,490,492,-1,-1,494,496,-1,498,500,502,-1,504,-1,506,508,510,512,514,-1,-1,-1,-1,-1,516,-1,-1,-1,-1,-1,-1,-1,518,-1,-1,520,-1,-1,522,524,526,-1,-1,528,-1,-1,530,532,534,-1,-1,536,-1,-1,-1,-1,-1,-1,-1,-1,-1,-1,-1,-1,-1,-1,538,-1,-1,540,-1,-1,542,544,-1,546,548,-1,550,552,554,556,-1,-1,558,-1,560,562,-1,-1,-1,-1,564,-1,-1,566,-1,-1,-1,-1,-1,-1,568,570,572,-1,-1,-1,-1,-1,574,576,-1,-1,578,-1,580,-1,-1,-1,-1,-1,582,-1,584,-1,586,588,-1,-1,-1,590,592,594,596,-1,-1,-1,598,600,-1,-1,-1,-1,-1,602,604,-1,606,608,-1,-1,-1,-1,610,-1,-1,-1,612,614,-1,-1,-1,616,-1,-1,618,620,-1,-1,-1,-1,622,624,-1,-1,-1,-1,-1,-1,-1,-1,626,-1,628,-1,630,632,634,-1,636,638,-1,-1,-1,-1,640,-1,-1,-1,-1,-1,-1,-1,-1,-1,-1,642,-1,644,646,-1,-1,-1,648,650,-1,-1,-1,-1,-1,652,-1,-1,654,-1,-1,-1,-1,-1],"split_conditions":[4.756612E-4,2.0422536E-1,9.991808E-1,1.1402196E-1,9.911297E-1,9.9474376E-1,3.028169E-1,7.0422534E-3,6.3380286E-2,1.6904743E-2,8.7275445E-1,1.0159639E-2,2.725031E-3,1.0596122E-1,9.9715924E-1,2.2842633E-2,6.1751497E-1,2.1100054E-3,8.75E-1,-9.5727634E-1,9.1331416E-1,7.0422534E-3,5.2633995E-1,6.509481E-1,6.9718313E-1,1.7954063E-2,1.8415805E-2,1.08033925E-1,9.41745E-1,4.6556884E-1,9.896951E-1,8.3664167E-1,1.9014084E-1,7.6521957E-1,9.949869E-1,9.7183096E-1,-8.787879E-1,4.241517E-2,8.581865E-1,2.5904953E-4,7.0422534E-3,-7.8494626E-1,6.6791415E-1,4.7785002E-1,9.776012E-1,1.4562075E-2,-7.1428573E-1,5E-1,6.937546E-1,6.745952E-2,-5E-1,7.281919E-2,3.5211265E-2,3.5998702E-1,5E-1,8.947368E-1,4.7517353E-1,3.7259296E-2,8.400191E-1,5.9467757E-1,7.2954094E-1,7.846967E-1,7.784431E-1,9E-1,9.9008703E-1,8.90821E-1,-6.8421054E-1,1.4471058E-2,5.7160676E-1,1.3380282E-1,-4.857143E-1,4.94012E-1,9.9768233E-1,4.5454547E-1,-7.1428573E-1,6.549296E-1,6.762556E-1,8.9122295E-1,9.678205E-1,7.3333335E-1,8.5211265E-1,7.4879116E-1,4.7444266E-1,7.5757575E-1,-2.5E-1,5.555556E-1,2.1452956E-2,-9.090909E-2,3.846154E-1,8.732535E-3,6.923077E-1,1.4720559E-2,-8.8372093E-1,3.1961077E-1,3.772455E-1,6.971104E-1,2.112676E-2,3.6726546E-1,9.9509406E-1,7.739364E-1,6.923077E-1,6.599809E-1,-8.518519E-1,6.9491524E-1,-0E0,-5E-1,2.5E-1,1.514471E-1,5.162176E-1,3.3333334E-1,3.7323946E-1,1.6963994E-2,5E-1,-2E-1,8.87324E-1,-5E-1,-1.1111111E-1,2.7694613E-1,8.4E-1,5.212076E-1,6.8962073E-1,7.117446E-1,2.3239437E-1,9.8367345E-1,9.7174513E-1,5E-1,-2.5E-1,5E-1,8.196108E-1,7.83228E-1,5.7042253E-1,1.5398346E-2,4.2957747E-1,7.5823355E-1,8.1212574E-1,5E-1,-5E-1,-3.3333334E-1,6.363636E-1,-2.7272728E-1,-0E0,9.090909E-2,1.9014084E-1,1.3722555E-2,-6.4705884E-1,2.9917932E-1,1.185947E-1,-4.5454547E-1,-1.1111111E-1,6.5217394E-1,-0E0,2.5E-1,-2.5E-1,1.1219977E-2,-5E-1,9.673648E-1,6.576846E-1,9.288398E-1,1.9014084E-1,3.870441E-1,-5.714286E-1,1.1576846E-1,3.380282E-1,-9.330544E-1,5E-1,2.6056337E-1,9.159182E-1,2.2055888E-1,8.4E-1,-8.679245E-1,4.43662E-1,9.090909E-2,5E-1,7.777778E-1,4.3088824E-1,3.7275448E-1,6.6541916E-1,1.6197184E-1,5E-1,3.5211265E-2,9.370042E-1,7.0422534E-3,5.8354616E-1,2.112676E-2,9.154929E-2,-6E-1,3.2374442E-1,-7.5757575E-1,5E-1,7.83228E-1,-5.3846157E-1,-7.2727275E-1,-2E-1,9.9928313E-1,9.3939394E-1,9.7894573E-1,8.051397E-1,7.535211E-1,9.91819E-1,-8.378378E-1,8.552894E-1,-4E-1,1.0404511E-2,-6.2376237E-1,1.2713732E-2,-5E-1,3.3333334E-1,2.7095807E-1,-5.3846157E-1,2.8169014E-2,5E-1,5E-1,7.3913044E-1,7.5438595E-1,7.115768E-1,6.1152697E-1,4.5454547E-1,1.2610292E-2,4.9201596E-1,9.154929E-2,-0E0,-3.3333334E-1,1.1111111E-1,-4E-1,2E-1,1.1111111E-1,-7.837838E-1,3.8732395E-1,5.5963075E-1,2.5E-1,-0E0,-6.875E-1,-0E0,-8.518519E-1,5.422535E-1,7.9302174E-1,7.957747E-1,-4E-1,5.154691E-1,6.333897E-2,4.8278445E-1,7.3913044E-1,7.2305393E-1,-6.666667E-1,6.015469E-1,5E-1,-3.3333334E-1,8.095238E-1,1.056338E-1,5.555556E-1,3.248503E-1,7.270199E-1,5.1422155E-1,-4E-1,8.961345E-1,9.8678637E-1,5.573852E-1,2.8169014E-2,2.1830985E-1,-2E-1,5E-1,7.816901E-1,-6.923077E-1,2.7272728E-1,-2.5E-1,2.0930683E-2,3.4507042E-1,6.363636E-1,3.4507042E-1,6.197183E-1,5E-1,5E-1,-6.7741936E-1,1.1140894E-2,8.9458644E-1,8.3782434E-1,9.507042E-1,-2.5E-1,2.857143E-1,-2.5E-1,1.1111111E-1,1.2100798E-1,5.555556E-1,-0E0,2.5E-1,7.0422534E-3,6E-1,5.3846157E-1,-2.5E-1,2.5E-1,-2.5E-1,1.9014084E-1,6.923077E-1,-6.4705884E-1,9.090909E-2,-0E0,-8.181818E-1,-7.5E-1,7.535211E-1,-2E-1,-9.148936E-1,8.731535E-1,8.073852E-1,6.3976365E-1,-2.7272728E-1,8.595309E-1,-8.4615386E-1,5E-1,-3.3333334E-1,9.303584E-1,2.662176E-1,-5.555556E-1,5.1347303E-1,-2E-1,6.3380286E-2,2.9391217E-1,-6E-1,-5E-1,1.9014084E-1,2.7120757E-1,4.225352E-2,8.6206895E-1,2.5E-1,-5.555556E-1,5.6646793E-4,8.961345E-1,7.6996005E-1,6.3123755E-2,2.7272728E-1,3.6701596E-1,9.816532E-1,4.0793413E-1,6.666667E-1,5E-1,7.053393E-1,8.6676645E-1,1.1111111E-1,7.060878E-1,8.4615386E-1,-4.5454547E-1,4.71831E-1,4E-1,-3.3333334E-1,-6.1538464E-1,6.549296E-1,5.422535E-1,-6E-1,6.9196004E-1,-5.294118E-1,7.6760566E-1,7.5E-1,7.824351E-1,7.6760566E-1,-2.7272728E-1,3.3333334E-1,9.084507E-1,-7.777778E-1,3.3333334E-1,2.6721555E-1,2.5848305E-1,3.5211265E-2,1.5108238E-2,4E-1,5E-1,-7.3333335E-1,6.444221E-2,3.4507042E-1,-7.364341E-1,8.239436E-1,-1.1111111E-1,3.3333334E-1,5E-1,1.1111111E-1,3.3333334E-1,3.6427148E-2,9.374581E-2,5.3846157E-1,1.1111111E-1,-4E-1,1.1111111E-1,5.555556E-1,-6E-1,6.7783684E-1,6.666667E-1,2.1750093E-1,2.6197606E-1,7.0422534E-3,-9.090909E-2,-8E-1,1.4788732E-1,1.4788732E-1,6.363636E-1,-0E0,-9.090909E-2,2.5E-1,2.5E-1,8.7323946E-1,2.1707335E-1,9.154929E-2,5.735059E-1,6.187625E-1,-0E0,5.968064E-1,-1.1111111E-1,-6E-1,-0E0,5.555556E-1,-5E-1,-0E0,4.43662E-1,-2.5E-1,7.5773454E-1,7.377745E-1,-0E0,7.2380245E-1,8.692615E-1,5.9859157E-1,2.7272728E-1,-3.3333334E-1,8.350798E-1,8.428144E-1,1.1111111E-1,6.4586505E-2,-5E-1,5E-1,-6E-1,9.194112E-1,2.5823355E-1,-5E-1,-0E0,9.937879E-1,2.112676E-2,9.090909E-2,1.4568654E-1,9.800651E-1,7.112676E-1,4E-1,9.7204447E-1,7.5E-1,4.5938972E-1,5E-1,7.816901E-1,8.71008E-1,6.549296E-1,-7.2727275E-1,-0E0,-5.714286E-1,1.1111111E-1,-2.5E-1,2.2535211E-1,-1.1111111E-1,-2.5E-1,5.555556E-1,-0E0,-5.555556E-1,-1.1111111E-1,3.3333334E-1,7.0933133E-1,7.241379E-1,8.3908045E-1,6.758982E-1,-0E0,7.2727275E-1,5.1197606E-1,4.5487887E-1,5.637603E-1,8.974359E-1,-2E-1,2.0422536E-1,5E-1,-0E0,6.6417164E-1,6.487026E-1,8.561295E-1,6.666667E-1,-4.5454547E-1,8.455589E-1,-0E0,-5.555556E-1,-4.5454547E-1,2.5E-1,6.666667E-1,9.090909E-2,3.3333334E-1,-0E0,-4.5454547E-1,-1.1111111E-1,-5.833333E-1,1.1111111E-1,-2.7272728E-1,3.3333334E-1,1.4084507E-2,9.090909E-2,5.7894737E-1,2.7341098E-1,-5E-1,-1.1111111E-1,9.154929E-2,9.067353E-1,6E-1,4.3612775E-1,5E-1,3.3333334E-1,7.00038E-3,4.0380722E-1,4.6032935E-1,7.552395E-1,-7.5E-1,-0E0,8.74501E-1,5.555556E-1,8.5429144E-1,9.710579E-1,-4.6666667E-1,1.1111111E-1,5.555556E-1,-0E0,7.7113163E-1,-5E-1,-0E0,6.1065954E-1,-0E0,4E-1,-0E0,-4.6666667E-1,6.363636E-1,-1.1111111E-1,3.5211265E-2,7.672156E-1,3.802817E-1,5.555556E-1,7.3333335E-1,9.090909E-2,5E-1,-2E-1,3.5033068E-1,8.6402196E-1,-4E-1,-0E0,2.7170658E-1,-0E0,5.6212574E-1,-5.3333336E-1,5E-1,-2E-1,-4E-1,2E-1,5.563381E-1,-6.363636E-1,6.6182274E-1,6.363636E-1,3.028169E-1,2.3239437E-1,-9.090909E-2,-7.1428573E-1,5.3846157E-1,7.999002E-1,7.253521E-1,6.690141E-1,5.777067E-1,2.7272728E-1,-7.3913044E-1,-0E0,1.0020641E-1,6.3380286E-2,6.969697E-1,1.1111111E-1,1.1111111E-1,7.037037E-1,-2E-1,5E-1,5E-1,-4E-1,8.038026E-1,5E-1,-5E-1,-1.1111111E-1,-0E0,5E-1,4.9966124E-1,5E-1,-4E-1,2E-1,5.641217E-1,4.5774648E-1,-1.1111111E-1,2.7272728E-1,9.090909E-2,4.5774648E-1,-2E-1,5E-1,3.1551263E-1,8.479533E-1,5.714286E-1,-3.3333334E-1,-0E0,-5E-1,6.058701E-1,6.354895E-1,-2.5E-1,-0E0,6.363636E-1,-2.5E-1,-2.5E-1,3.3333334E-1,2.5E-1,-3.3333334E-1,7.687126E-1,6.25E-1,4.1841316E-1,-0E0,5.1996005E-1,5E-1,6.8388224E-1,2E-1,8.1561875E-1,5E-1,-6.666667E-1,-9.090909E-2,3.3333334E-1,-1.1111111E-1,3.5211265E-2,-2.5E-1,7E-1,2E-1,-0E0,3.3333334E-1,-0E0,-5E-1,-9.090909E-2,-3.3333334E-1,6.363636E-1,7.5923157E-1,-6.666667E-1,2.6760563E-1,5E-1,-0E0,2.5E-1,-2.5E-1,5.1939416E-1,1.056338E-1,-1.1111111E-1,3.3333334E-1,-2.5E-1,-0E0,-7.777778E-1,3.6619717E-1,-0E0,7.1428573E-1,5.546407E-1,2.5E-1,-4.2857143E-1,-1.1111111E-1,2.5E-1,-2.7272728E-1],"split_indices":[28,0,28,1,25,0,0,0,0,25,1,26,26,26,7,26,1,26,0,0,1,0,11,1,0,1,1,1,3,1,26,17,0,1,26,0,0,1,15,3,0,0,1,1,26,1,0,6,26,1,0,3,0,1,23,0,1,17,3,6,1,7,1,0,6,1,0,1,1,0,0,1,3,0,0,0,23,7,15,0,0,6,3,0,0,0,1,0,0,1,0,1,0,1,1,6,0,1,15,15,0,23,0,0,0,0,0,1,1,0,0,6,21,0,0,0,0,1,0,1,1,7,0,0,6,0,0,17,1,21,0,15,0,1,1,3,0,0,0,0,0,0,0,1,0,1,3,0,0,0,0,0,0,6,0,3,1,6,0,6,0,1,0,0,17,0,1,1,0,0,0,0,0,0,1,1,1,0,3,0,26,0,1,0,0,0,6,0,25,17,0,0,0,21,0,21,1,0,15,0,1,0,1,0,1,0,0,1,0,0,0,15,0,0,1,1,0,6,1,0,0,0,0,0,0,0,0,0,1,0,0,0,0,0,0,3,0,0,1,3,1,0,1,0,1,0,0,0,0,0,1,1,1,0,21,15,1,0,0,0,0,0,0,0,0,21,0,0,0,0,6,17,0,15,1,1,0,0,0,0,0,1,0,0,0,0,0,0,0,0,0,0,0,0,0,0,0,0,0,0,0,17,1,1,0,1,0,0,0,7,1,0,1,0,0,1,0,0,0,1,0,0,0,0,23,23,1,1,0,1,23,1,0,21,1,1,0,1,0,0,0,0,0,0,0,0,0,21,0,0,0,1,0,0,0,0,0,0,1,1,0,21,0,6,0,17,0,0,0,0,0,17,0,0,1,1,0,0,0,0,0,0,17,0,1,1,0,0,0,0,0,0,0,0,0,0,0,1,0,1,1,0,1,0,0,0,0,0,0,0,0,1,1,0,1,1,0,0,0,1,1,0,6,0,0,0,1,1,0,0,3,0,0,23,21,0,0,3,0,23,0,0,1,0,0,0,0,0,0,0,0,0,0,0,0,0,0,1,0,0,1,0,0,1,1,1,0,0,0,0,0,1,1,23,0,0,1,0,0,0,0,0,0,0,0,0,0,0,0,0,0,0,0,0,1,0,0,0,23,0,1,21,0,3,1,1,1,0,0,1,0,1,1,0,0,0,0,6,0,0,6,0,0,0,0,0,0,0,1,0,0,0,0,0,0,3,1,0,0,1,0,1,0,0,0,0,0,0,0,15,0,0,0,0,0,0,1,0,0,15,0,0,0,21,0,0,0,0,0,0,15,3,0,1,0,0,0,0,0,3,0,0,0,1,0,0,0,0,0,0,0,3,1,0,0,0,0,1,1,0,0,0,0,0,0,0,0,1,0,1,0,1,21,1,0,1,0,0,0,0,0,0,0,0,0,0,0,0,0,0,0,0,1,0,0,15,0,0,0,1,0,0,0,0,0,0,0,0,0,1,0,0,0,0,0],"split_type":[0,0,0,0,0,0,0,0,0,0,0,0,0,0,0,0,0,0,0,0,0,0,0,0,0,0,0,0,0,0,0,0,0,0,0,0,0,0,0,0,0,0,0,0,0,0,0,0,0,0,0,0,0,0,0,0,0,0,0,0,0,0,0,0,0,0,0,0,0,0,0,0,0,0,0,0,0,0,0,0,0,0,0,0,0,0,0,0,0,0,0,0,0,0,0,0,0,0,0,0,0,0,0,0,0,0,0,0,0,0,0,0,0,0,0,0,0,0,0,0,0,0,0,0,0,0,0,0,0,0,0,0,0,0,0,0,0,0,0,0,0,0,0,0,0,0,0,0,0,0,0,0,0,0,0,0,0,0,0,0,0,0,0,0,0,0,0,0,0,0,0,0,0,0,0,0,0,0,0,0,0,0,0,0,0,0,0,0,0,0,0,0,0,0,0,0,0,0,0,0,0,0,0,0,0,0,0,0,0,0,0,0,0,0,0,0,0,0,0,0,0,0,0,0,0,0,0,0,0,0,0,0,0,0,0,0,0,0,0,0,0,0,0,0,0,0,0,0,0,0,0,0,0,0,0,0,0,0,0,0,0,0,0,0,0,0,0,0,0,0,0,0,0,0,0,0,0,0,0,0,0,0,0,0,0,0,0,0,0,0,0,0,0,0,0,0,0,0,0,0,0,0,0,0,0,0,0,0,0,0,0,0,0,0,0,0,0,0,0,0,0,0,0,0,0,0,0,0,0,0,0,0,0,0,0,0,0,0,0,0,0,0,0,0,0,0,0,0,0,0,0,0,0,0,0,0,0,0,0,0,0,0,0,0,0,0,0,0,0,0,0,0,0,0,0,0,0,0,0,0,0,0,0,0,0,0,0,0,0,0,0,0,0,0,0,0,0,0,0,0,0,0,0,0,0,0,0,0,0,0,0,0,0,0,0,0,0,0,0,0,0,0,0,0,0,0,0,0,0,0,0,0,0,0,0,0,0,0,0,0,0,0,0,0,0,0,0,0,0,0,0,0,0,0,0,0,0,0,0,0,0,0,0,0,0,0,0,0,0,0,0,0,0,0,0,0,0,0,0,0,0,0,0,0,0,0,0,0,0,0,0,0,0,0,0,0,0,0,0,0,0,0,0,0,0,0,0,0,0,0,0,0,0,0,0,0,0,0,0,0,0,0,0,0,0,0,0,0,0,0,0,0,0,0,0,0,0,0,0,0,0,0,0,0,0,0,0,0,0,0,0,0,0,0,0,0,0,0,0,0,0,0,0,0,0,0,0,0,0,0,0,0,0,0,0,0,0,0,0,0,0,0,0,0,0,0,0,0,0,0,0,0,0,0,0,0,0,0,0,0,0,0,0,0,0,0,0,0,0,0,0,0,0,0,0,0,0,0,0,0,0,0,0,0,0,0,0,0,0,0,0,0,0,0,0,0,0,0,0,0,0,0,0,0,0,0,0,0,0,0,0,0,0,0,0],"sum_hessian":[1.452E3,7.44E2,7.08E2,2.3975E2,5.0425E2,1.8925E2,5.1875E2,9.45E1,1.4525E2,2.945E2,2.0975E2,3.3125E2,1.875E2,3.2E1,6.25E1,8.175E1,6.35E1,2.875E2,7E0,1.8625E2,2.35E1,5.85E1,2.7275E2,4.15E1,1.46E2,1.875E1,1.325E1,6E0,5.65E1,2.625E1,5.55E1,4.575E1,1.775E1,1.1E2,1.775E2,8E0,1.55E1,1.7E1,4.15E1,2.6675E2,6E0,2.225E1,1.925E1,8.875E1,5.725E1,1.275E1,6E0,8.25E0,5E0,4E0,2E0,3.05E1,2.6E1,1.85E1,7.75E0,8.5E0,4.7E1,3.5E1,1.075E1,1.575E1,2E0,9.875E1,1.125E1,9E0,1.685E2,4.25E0,3.75E0,2.25E0,1.475E1,3.375E1,7.75E0,1.055E2,1.6125E2,1.75E0,4.25E0,2E0,1.725E1,1.1E1,7.775E1,2.75E0,5.45E1,7E0,5.75E0,7.25E0,1E0,1.25E0,3.75E0,1.75E0,2.25E0,2.825E1,2.25E0,5.5E0,2.05E1,1.55E1,3E0,5.75E0,2E0,2.35E1,2.35E1,3.275E1,2.25E0,5E0,5.75E0,1.375E1,2E0,1E0,1E0,1.25E1,8.625E1,1.25E0,1E1,1.235E2,4.5E1,1.5E0,2.75E0,1E0,1.25E0,9.5E0,5.25E0,2.2E1,1.175E1,2.125E1,8.425E1,6.025E1,1.01E2,1E0,1E0,4E0,1.325E1,5E0,6E0,5.075E1,2.7E1,3.175E1,2.275E1,5E0,2E0,1.25E0,4.5E0,1.75E0,2E0,1.75E0,2.65E1,2.25E0,3.25E0,1.05E1,5E0,1.75E0,1.25E0,4.75E0,1E0,1E0,1E0,2.05E1,3E0,1.975E1,3.75E0,2.625E1,6.5E0,2.5E0,2.5E0,3E0,9.5E0,5.875E1,2.75E1,2E0,8E0,1.1825E2,5.25E0,2.55E1,1.95E1,1.75E0,1E0,5.75E0,3.75E0,1.325E1,8.75E0,8.5E0,3.25E0,9.5E0,1.175E1,7.725E1,7E0,9.05E1,1.05E1,1.5E0,2.5E0,7.25E0,6E0,2.75E0,2.25E0,4.5E0,1.5E0,3.525E1,1.55E1,8.75E0,1.825E1,1.3E1,1.875E1,8.25E0,1.45E1,1.5E0,3.5E0,2.425E1,2.25E0,1E0,1.25E0,8.25E0,2.25E0,2E0,3E0,1.575E1,4.75E0,1.325E1,6.5E0,2E0,1.75E0,2.125E1,5E0,5.5E0,1E0,1.25E0,1.25E0,1.5E0,1.5E0,1.25E0,8.25E0,1.525E1,1.225E1,1E0,1E0,7E0,1E0,1.25E1,1.0575E2,4.25E0,1.525E1,1.5E0,2.25E0,9.25E0,4E0,4.75E0,4E0,2E0,6.5E0,2E0,1.25E0,4.25E0,5.25E0,1.25E0,1.05E1,2.175E1,5.55E1,1.5E0,5.5E0,3.725E1,5.325E1,5.5E0,5E0,1.5E0,1E0,3.75E0,2.25E0,1.75E0,1E0,1.6E1,1.925E1,4.5E0,4.25E0,8.75E0,9.5E0,6.25E0,6.75E0,8.25E0,1.05E1,3E0,1.15E1,1E0,2.5E0,1E0,1.25E0,7E0,1.25E0,1E0,1E0,1.175E1,4E0,5.5E0,1E0,1E0,1E0,1.9E1,2.25E0,3.25E0,1.75E0,1E0,4.5E0,5E0,1.025E1,1.5E0,1.075E1,5.15E1,5.425E1,2.5E0,1.75E0,9.75E0,5.5E0,1E0,1.25E0,4.75E0,4.5E0,1.25E0,2.75E0,1.5E0,2.5E0,5E0,1.5E0,1E0,4.25E0,4.75E0,5.75E0,2.075E1,1E0,1.25E0,5.425E1,2.75E0,2.75E0,3.55E1,1.75E0,1.225E1,4.1E1,3.5E0,2E0,2.75E0,2.25E0,2.5E0,1.25E0,1.05E1,5.5E0,1.75E0,1.75E1,1.5E0,2.75E0,5.5E0,3.25E0,8E0,1.5E0,3E0,3.25E0,5.25E0,3E0,7.5E0,3E0,1.75E0,1.25E0,5.75E0,5.75E0,1.25E0,5.75E0,7.75E0,4E0,1.75E1,1.5E0,7.5E0,2.75E0,3.25E1,1.9E1,3.125E1,2.3E1,1.25E0,1.25E0,8.5E0,1.25E0,1.25E0,3.5E0,2.25E0,2.25E0,1.25E0,1.5E0,1.25E0,1.25E0,1.5E0,3.5E0,2E0,2.25E0,2.25E0,2.5E0,1.75E0,4E0,2.3E1,3.125E1,1.75E0,1E0,1.75E0,1E0,1E0,3.45E1,6E0,6.25E0,2.15E1,1.95E1,1.5E0,2E0,1.25E0,1.5E0,1E0,1.25E0,1E0,1.5E0,9.5E0,1E0,6E0,1.15E1,1E0,2.25E0,2.75E0,5.25E0,1.75E0,1.25E0,2.25E0,3E0,1.25E0,6.25E0,1E0,2E0,2.75E0,3E0,4.75E0,1E0,1E0,6.75E0,2.25E0,1.75E0,1.3E1,4.5E0,6E0,1.5E0,2.95E1,3E0,9E0,1E1,1.2E1,1.1E1,4E0,4.5E0,1E0,2.5E0,1.25E0,1E0,2.25E0,1.25E0,1E0,1.25E0,1E0,1.25E0,1.25E0,1.25E0,1.675E1,6.25E0,2.075E1,1.05E1,1.5E0,4.5E0,2.5E0,3.75E0,3E0,1.85E1,1.5E0,1.8E1,1E0,1E0,5E0,4.5E0,2.5E0,3.5E0,1.75E0,9.75E0,1E0,1.25E0,1.75E0,1E0,3.5E0,1.75E0,1.25E0,1E0,1.75E0,1.25E0,5E0,1.25E0,1.75E0,1.25E0,3E0,1.75E0,3.75E0,3E0,1E0,1.25E0,1.05E1,2.5E0,1.5E0,3E0,4.75E0,1.25E0,1.45E1,1.5E1,4.25E0,4.75E0,9E0,1E0,1.075E1,1.25E0,5.25E0,5.75E0,2.75E0,1.25E0,1.25E0,1E0,1.575E1,1E0,2E0,8.5E0,1E0,1.5E0,1E0,2.75E0,1.75E0,1.25E0,1.375E1,4.25E0,3.75E0,1.25E0,2.75E0,1.75E0,1E0,1.5E0,7.5E0,2.25E0,1.5E0,1.5E0,2E0,1E0,4E0,6.5E0,1E0,1.5E0,1.5E0,1.5E0,3E0,1.75E0,1.275E1,1.75E0,3E0,1.2E1,1.75E0,2.5E0,2.25E0,2.5E0,6.25E0,4.5E0,3.5E0,1.75E0,4.75E0,1E0,1.375E1,2E0,7.25E0,1.25E0,1.25E0,1.25E1,1.5E0,2.75E0,2.25E0,1.5E0,2.25E0,5.25E0,1E0,1.25E0,1E0,1E0,3E0,1E0,1.5E0,1.5E0,7.25E0,5.5E0,1.25E0,1.75E0,1.75E0,1.025E1,1.5E0,1E0,3.75E0,2.5E0,2.5E0,2E0,1.5E0,2E0,8.25E0,5.5E0,1E0,1E0,1.75E0,1E0,1E0,1.25E0,1E0,1.25E0,2.25E0,3E0,2E0,1E0,3E0,4.25E0,4E0,1.5E0,8.25E0,2E0,2E0,1.75E0,1.25E0,1.25E0,7.25E0,1E0,4E0,1.5E0,1E0,1.25E0,1E0,1E0,1.75E0,1.25E0,1.75E0,2.5E0,2E0,2E0,7.25E0,1E0,1E0,1E0,3.5E0,3.75E0,1.25E0,1.25E0,1E0,1E0,3.5E0,3.75E0,1E0,2.5E0,2.75E0,1E0,2.5E0,1.25E0,1E0,1.75E0],"tree_param":{"num_deleted":"0","num_feature":"30","num_nodes":"655","size_leaf_vector":"0"}},{"base_weights":[1.0744206E-3,-5.7991076E-1,6.172553E-1,-3.188605E-1,-1.2553306E0,7.80428E-1,-5.9271455E-1,-6.014686E-3,-1.0703123E0,-1.3059568E0,-1.0413576E0,1.3603888E0,5.647276E-1,1.1387122E0,-7.345005E-1,-6.627917E-2,1.4855397E0,-1.3127683E0,-7.527461E-1,-7.8283036E-1,-1.2650176E0,6.724904E-1,-7.4494976E-1,-6.2179214E-1,-1.1283809E0,-2.5172773E-1,1.9210324E-1,-4.4582087E-1,-9.441599E-1,-4.422635E-1,-8.6233217E-1,7.276715E-1,-7.4004096E-1,-9.508839E-1,-5.678417E-1,-4.0773544E-1,-9.949246E-1,-1.1796416E0,-2.630648E-1,-3.570557E-1,2.1891236E-1,3.1846458E-1,-3.5202128E-1,-6.0402054E-1,1.0601474E0,-8.0806905E-1,-1.5537359E-1,7.5642556E-1,-7.61883E-1,-5.429037E-1,-1.102731E0,-1.1222682E0,-2.4049276E-1,-8.4491485E-1,-4.378569E-1,-4.7943968E-1,8.641647E-1,-1.3637426E0,-5.9843093E-1,-2.6898253E-1,-8.5248137E-1,1.3060088E0,2.3428373E-2,2.1835133E-1,1.357699E0,-6.3451403E-1,-8.2199186E-2,-9.003014E-1,-2.5377712E-1,7.000157E-1,1.4131542E0,-5.799652E-1,-2.912325E-1,-9.6656716E-1,-3.3307365E-1,-3.1891045E-1,1.188645E0,-6.3844204E-1,-1.2763829E0,-6.1789997E-2,2.7945876E-1,3.9654964E-1,-2.2220913E-1,-4.2169476E-1,-8.0783826E-1,-3.7005374E-1,2.7836126E-1,-6.7621905E-1,1.17683865E-1,3.500227E-1,7.940829E-1,-7.232471E-1,-3.2919198E-1,-5.984406E-1,-1.9286926E-1,-8.2027584E-1,-1.3356484E-1,-2.5653744E-1,-7.073945E-1,-8.1188875E-1,-6.816814E-2,-2.4489777E-1,3.550638E-1,5.699238E-1,-4.4678995E-1,3.2081503E-1,1.2204759E0,-1.1089829E-1,-3.5431424E-1,-7.482447E-1,5.488247E-3,-7.062945E-1,4.2953543E-2,4.0291813E-1,1.1793957E-1,4.0562195E-1,-3.960406E-1,-1.6133302E-3,8.3189446E-1,8.590228E-1,5.270419E-1,2.121711E-1,-3.9623E-1,-1.9226694E-1,-6.122133E-2,-3.204439E-1,1.3711311E0,-8.61549E-1,-1.0682527E-1,-2.6463804E-1,2.7756053E-1,-3.4081808E-1,-5.539545E-2,1.0054383E0,-8.3198875E-2,1.0802038E0,-3.136717E-1,1.1699501E0,2.7052337E-1,1.439024E-1,-3.368178E-1,-4.4995353E-1,-2.548419E-1,1.2241721E-2,4.9024455E-2,5.326108E-1,-2.7472004E-2,1.06424026E-1,-4.609891E-1,1.2086258E0,7.0493615E-1,7.5661415E-1,1.4116992E0,2.0168377E-1,6.4418185E-1,3.9153832E-1,-7.74524E-2,-8.1969565E-1,-1.02678105E-1,-2.5863475E-1,-7.142134E-1,-5.0218886E-1,-1.0499544E0,9.2462756E-2,-3.98587E-1,-2.3803599E-1,-5.9096366E-1,-3.0561975E-1,5.66316E-1,-2.6632366E-1,3.2070535E-1,3.8772184E-1,3.8838424E-2,2.2205687E-1,4.322622E-2,8.770707E-3,-3.4973532E-1,1.9706105E-1,-4.3778548E-1,-2.4884494E-1,-9.198455E-1,8.6396205E-1,6.2143254E-1,1.2274566E-1,2.552217E-1,1.0653056E0,5.808137E-1,-3.0869168E-1,2.126297E-1,-4.827383E-1,-1.1413804E0,-2.480215E-1,-9.0927386E-1,3.1338036E-1,1.1037445E0,-2.7753615E-1,2.8642175E-1,1.3054505E-1,8.7609875E-1,7.058516E-1,1.3924065E0,-2.9442245E-1,-5.768897E-1,3.1182045E-1,-2.9835403E-1,-2.8519058E-1,-9.682091E-1,3.9838314E-1,1.8396983E-1,-8.9430004E-2,-7.437131E-1,7.981125E-1,1.673575E-1,1.4514904E-1,1.0599919E-2,8.023297E-1,4.356794E-1,-3.0361918E-1,-9.915268E-2,3.1230986E-1,9.742554E-1,8.326075E-2,3.1212178E-1,7.3226917E-1,1.1992784E0,3.435739E-1,1.2788391E-1],"categories":[],"categories_nodes":[],"categories_segments":[],"categories_sizes":[],"default_left":[1,1,1,1,1,1,1,1,1,0,1,0,1,0,1,1,0,0,1,1,0,1,1,1,1,1,1,1,0,1,0,1,1,1,1,1,1,0,0,1,1,1,1,1,0,0,0,1,0,0,0,0,0,0,0,1,0,0,1,1,1,0,1,1,0,1,1,0,1,1,0,1,1,0,1,1,0,1,0,1,1,1,1,1,0,1,1,0,1,1,1,0,0,0,1,0,1,1,1,0,1,1,1,1,0,1,0,1,1,0,0,0,1,0,0,1,0,1,1,1,1,1,1,0,0,1,0,1,1,0,0,1,1,0,1,0,0,0,1,1,0,0,1,0,0,0,0,1,1,0,0,1,0,1,1,0,0,0,0,1,1,1,0,0,0,0,0,0,0,0,0,1,1,0,0,0,0,1,0,0,0,1,0,0,0,0,0,1,1,1,0,0,0,1,0,1,1,1,0,1,0,0,0,0,0,1,0,1,1,0,0,0,0,0,0,1,0,0,0,1,0,0,0,0,0,0,0],"id":1,"left_children":[1,3,5,7,9,11,13,15,17,-1,19,-1,21,-1,23,25,-1,-1,27,29,-1,31,33,35,37,39,41,43,-1,45,-1,47,49,51,53,55,57,-1,-1,59,61,63,65,67,-1,-1,-1,69,-1,-1,-1,-1,-1,-1,-1,71,-1,-1,73,75,77,-1,79,81,-1,83,85,-1,87,89,-1,91,93,-1,95,97,-1,99,-1,101,103,105,107,109,-1,111,113,-1,115,117,119,-1,-1,-1,121,-1,123,125,127,-1,129,131,133,135,-1,137,-1,139,141,-1,-1,-1,143,-1,-1,145,-1,147,149,151,153,155,157,-1,-1,159,-1,161,163,-1,-1,165,167,-1,169,-1,-1,-1,171,173,-1,-1,175,-1,-1,-1,-1,177,179,-1,-1,181,-1,183,185,-1,-1,-1,-1,187,189,191,-1,-1,-1,-1,-1,-1,-1,-1,-1,193,195,-1,-1,-1,-1,197,-1,-1,-1,199,-1,-1,-1,-1,-1,201,203,205,-1,-1,-1,207,-1,209,211,213,-1,215,-1,-1,-1,-1,-1,217,-1,219,221,-1,-1,-1,-1,-1,-1,223,-1,-1,-1,225,-1,-1,-1,-1,-1,-1,-1],"loss_changes":[4.504259E2,1.13783005E2,1.21016754E2,1.1011213E2,5.918884E-1,6.6594055E1,1.87886E1,2.9916996E1,9.612793E0,0E0,1.2885056E0,0E0,5.6137352E1,0E0,2.3260384E0,1.5372358E1,0E0,0E0,3.2187576E0,1.8460846E-1,0E0,2.8969986E1,5.704441E-1,4.0075645E0,3.0828285E-1,9.3288145E0,9.338745E0,6.7610126E0,0E0,5.050756E-1,0E0,1.5633636E1,4.1731024E-1,1.2634573E0,3.0894852E-1,3.771038E0,2.0278854E0,0E0,0E0,6.440813E0,7.35325E0,1.1088557E1,1.911752E0,2.2501411E0,0E0,0E0,0E0,1.1806366E1,0E0,0E0,0E0,0E0,0E0,0E0,0E0,5.0245476E-1,0E0,0E0,7.6770926E-1,9.931223E0,1.2367802E0,0E0,6.820417E-1,8.017675E0,0E0,1.1814785E-1,1.589999E0,0E0,2.0157464E0,1.0259277E1,0E0,5.5677557E-1,3.186034E-1,0E0,6.6881E-1,2.912696E0,0E0,1.6287832E0,0E0,1.8943212E0,1.897891E0,4.118387E0,3.9787054E-1,1.0747603E0,0E0,1.1962975E0,9.097254E-2,0E0,1.2577978E0,1.1792491E1,3.9081726E0,0E0,0E0,0E0,1.1017557E0,0E0,1.7428845E-2,1.2047663E1,1.4907904E0,0E0,4.173242E-1,2.9092586E-1,2.259857E0,3.045814E0,0E0,2.56807E0,0E0,1.0610363E0,1.0333061E-2,0E0,0E0,0E0,2.7813762E-4,0E0,0E0,3.0321383E-1,0E0,2.0952125E0,5.522213E-1,1.02908325E1,1.8434868E0,2.7869543E-1,9.816791E-1,0E0,0E0,2.448536E0,0E0,3.842516E-1,3.0627358E-1,0E0,0E0,1.452775E-1,1.2498931E0,0E0,4.910946E-1,0E0,0E0,0E0,1.7518263E0,6.0958892E-2,0E0,0E0,2.2186726E-1,0E0,0E0,0E0,0E0,1.7727481E0,5.535085E-1,0E0,0E0,1.9514313E0,0E0,3.2753587E-2,3.8506508E-1,0E0,0E0,0E0,0E0,2.3086214E0,8.4428644E-1,4.5193315E-1,0E0,0E0,0E0,0E0,0E0,0E0,0E0,0E0,0E0,1.9483738E0,1.8787358E0,0E0,0E0,0E0,0E0,1.2405883E0,0E0,0E0,0E0,6.7887115E0,0E0,0E0,0E0,0E0,0E0,1.606493E-1,5.857822E-1,7.677598E-1,0E0,0E0,0E0,3.715961E-1,0E0,8.6231744E-1,6.8148625E-1,4.8380077E-2,0E0,1.5694313E0,0E0,0E0,0E0,0E0,0E0,1.2794733E-3,0E0,8.631263E-1,2.0492125E-1,0E0,0E0,0E0,0E0,0E0,0E0,5.9744644E-1,0E0,0E0,0E0,8.268809E-2,0E0,0E0,0E0,0E0,0E0,0E0,0E0],"parents":[2147483647,0,0,1,1,2,2,3,3,4,4,5,5,6,6,7,7,8,8,10,10,12,12,14,14,15,15,18,18,19,19,21,21,22,22,23,23,24,24,25,25,26,26,27,27,29,29,31,31,32,32,33,33,34,34,35,35,36,36,39,39,40,40,41,41,42,42,43,43,47,47,55,55,58,58,59,59,60,60,62,62,63,63,65,65,66,66,68,68,69,69,71,71,72,72,74,74,75,75,77,77,79,79,80,80,81,81,82,82,83,83,85,85,86,86,88,88,89,89,90,90,94,94,96,96,97,97,98,98,100,100,101,101,102,102,103,103,105,105,107,107,108,108,112,112,115,115,117,117,118,118,119,119,120,120,121,121,122,122,125,125,127,127,128,128,131,131,132,132,134,134,138,138,139,139,142,142,147,147,148,148,151,151,153,153,154,154,159,159,160,160,161,161,171,171,172,172,177,177,181,181,187,187,188,188,189,189,193,193,195,195,196,196,197,197,199,199,205,205,207,207,208,208,215,215,219,219],"right_children":[2,4,6,8,10,12,14,16,18,-1,20,-1,22,-1,24,26,-1,-1,28,30,-1,32,34,36,38,40,42,44,-1,46,-1,48,50,52,54,56,58,-1,-1,60,62,64,66,68,-1,-1,-1,70,-1,-1,-1,-1,-1,-1,-1,72,-1,-1,74,76,78,-1,80,82,-1,84,86,-1,88,90,-1,92,94,-1,96,98,-1,100,-1,102,104,106,108,110,-1,112,114,-1,116,118,120,-1,-1,-1,122,-1,124,126,128,-1,130,132,134,136,-1,138,-1,140,142,-1,-1,-1,144,-1,-1,146,-1,148,150,152,154,156,158,-1,-1,160,-1,162,164,-1,-1,166,168,-1,170,-1,-1,-1,172,174,-1,-1,176,-1,-1,-1,-1,178,180,-1,-1,182,-1,184,186,-1,-1,-1,-1,188,190,192,-1,-1,-1,-1,-1,-1,-1,-1,-1,194,196,-1,-1,-1,-1,198,-1,-1,-1,200,-1,-1,-1,-1,-1,202,204,206,-1,-1,-1,208,-1,210,212,214,-1,216,-1,-1,-1,-1,-1,218,-1,220,222,-1,-1,-1,-1,-1,-1,224,-1,-1,-1,226,-1,-1,-1,-1,-1,-1,-1],"split_conditions":[4.756612E-4,9.911297E-1,9.973405E-1,9.9192333E-1,5E-1,9.991808E-1,9.205469E-1,2.317175E-2,1.4744526E-1,-6.529784E-1,6.7874676E-1,6.801944E-1,9.973405E-1,5.693561E-1,9.6473587E-1,7.00038E-3,7.4276984E-1,-6.5638417E-1,9.6902907E-1,8.814423E-1,-6.325088E-1,9.303584E-1,5E-1,8.96989E-1,5E-1,2.8407916E-3,9.9509406E-1,1.700866E-1,-4.7207996E-1,5E-1,-4.3116608E-1,9.97275E-1,5E-1,5E-1,2.2398788E-2,8.181005E-3,5E-1,-5.898208E-1,-1.315324E-1,9.234339E-1,9.670495E-1,2.1100054E-3,1.6578463E-1,2.9302174E-1,5.300737E-1,-4.0403453E-1,-7.7686794E-2,2.3176817E-3,-3.809415E-1,-2.7145186E-1,-5.513655E-1,-5.611341E-1,-1.2024638E-1,-4.2245743E-1,-2.1892846E-1,5E-1,4.3208236E-1,-6.818713E-1,5E-1,1.5108238E-2,5E-1,6.530044E-1,1.9934934E-2,9.361141E-1,6.788495E-1,5E-1,2.2943504E-1,-4.501507E-1,9.912986E-3,7.758514E-2,7.065771E-1,5E-1,5E-1,-4.8328358E-1,5E-1,9.3739283E-1,5.943225E-1,3.7259296E-2,-6.3819146E-1,6.8392806E-2,9.800651E-1,5.0131E-3,9.847395E-1,4.501338E-2,-4.0391913E-1,5E-1,8.789457E-1,-3.3810952E-1,9.9008703E-1,2.635979E-2,9.9974096E-1,-3.6162356E-1,-1.6459599E-1,-2.992203E-1,5.979735E-1,-4.1013792E-1,4.2511967E-1,1.0304921E-2,8.695014E-2,-4.0594438E-1,5E-1,1.8396279E-1,9.286431E-1,5E-1,-2.2339498E-1,8.8053083E-1,6.1023796E-1,9.847395E-1,5E-1,-3.7412235E-1,2.7441236E-3,-3.5314724E-1,5E-1,2.0145907E-1,5.8969785E-2,5E-1,-1.980203E-1,9.857931E-1,9.8678637E-1,7.1685447E-4,2.7669E-2,5.979735E-1,3.6316195E-1,-9.613347E-2,-3.0610666E-2,9.631113E-1,6.8556553E-1,5E-1,7.338514E-1,-1.3231902E-1,1.3878027E-1,5E-1,5E-1,5.0271916E-1,5E-1,5.401019E-1,-1.5683585E-1,5.8497506E-1,9.8279107E-1,6.878694E-1,-1.684089E-1,-2.2497676E-1,5E-1,6.1208606E-3,2.4512228E-2,2.663054E-1,-1.3736002E-2,9.6510255E-1,9.7537136E-1,6.043129E-1,3.5246807E-1,9.936797E-1,7.058496E-1,3.9116788E-1,9.867153E-1,1.9576916E-1,-3.87262E-2,-4.0984783E-1,-5.1339053E-2,1.8311417E-2,5E-1,5E-1,-5.249772E-1,4.6231378E-2,-1.992935E-1,-1.19017996E-1,-2.9548183E-1,-1.5280987E-1,2.83158E-1,-1.3316183E-1,1.6035268E-1,3.566212E-2,1.0872893E-1,1.1102843E-1,2.161311E-2,4.3853535E-3,-1.7486766E-1,4.778641E-2,-2.1889274E-1,-1.2442247E-1,-4.5992276E-1,9.266178E-3,3.1071627E-1,6.137283E-2,1.2761085E-1,5.326528E-1,2.9040685E-1,7.4951446E-1,5.1831144E-1,5E-1,-5.706902E-1,-1.2401075E-1,-4.5463693E-1,9.7204447E-1,5.5187225E-1,5E-1,9.862349E-1,5E-1,4.3804938E-1,9.945806E-1,6.9620323E-1,-1.4721122E-1,-2.8844485E-1,1.5591022E-1,-1.4917701E-1,5E-1,-4.8410454E-1,1.1482946E-1,4.4918767E-1,-4.4715002E-2,-3.7185654E-1,3.9905626E-1,8.367875E-2,7.257452E-2,5.2999593E-3,5.330067E-2,2.178397E-1,-1.5180959E-1,-4.957634E-2,5E-1,4.871277E-1,4.1630376E-2,1.5606089E-1,3.6613458E-1,5.996392E-1,1.7178695E-1,6.3941956E-2],"split_indices":[28,25,19,24,10,28,28,24,23,0,27,0,24,0,25,10,0,0,17,19,0,12,10,24,8,8,19,17,0,23,0,25,9,8,9,24,9,0,0,19,8,19,23,9,0,0,0,19,0,0,0,0,0,0,0,9,0,0,10,19,23,0,23,17,0,9,17,0,10,10,0,23,10,0,23,27,0,17,0,27,27,17,27,17,0,27,9,0,19,8,17,0,0,0,23,0,17,27,9,0,9,19,27,17,0,10,0,23,23,0,0,0,9,0,0,27,0,9,8,17,9,17,17,0,0,9,0,12,17,0,0,17,17,0,19,0,0,0,27,9,0,0,9,0,0,0,0,17,23,0,0,9,0,23,9,0,0,0,0,17,12,17,0,0,0,0,0,0,0,0,0,27,9,0,0,0,0,17,0,0,0,9,0,0,0,0,0,23,23,17,0,0,0,9,0,23,9,23,0,23,0,0,0,0,0,23,0,9,23,0,0,0,0,0,0,23,0,0,0,23,0,0,0,0,0,0,0],"split_type":[0,0,0,0,0,0,0,0,0,0,0,0,0,0,0,0,0,0,0,0,0,0,0,0,0,0,0,0,0,0,0,0,0,0,0,0,0,0,0,0,0,0,0,0,0,0,0,0,0,0,0,0,0,0,0,0,0,0,0,0,0,0,0,0,0,0,0,0,0,0,0,0,0,0,0,0,0,0,0,0,0,0,0,0,0,0,0,0,0,0,0,0,0,0,0,0,0,0,0,0,0,0,0,0,0,0,0,0,0,0,0,0,0,0,0,0,0,0,0,0,0,0,0,0,0,0,0,0,0,0,0,0,0,0,0,0,0,0,0,0,0,0,0,0,0,0,0,0,0,0,0,0,0,0,0,0,0,0,0,0,0,0,0,0,0,0,0,0,0,0,0,0,0,0,0,0,0,0,0,0,0,0,0,0,0,0,0,0,0,0,0,0,0,0,0,0,0,0,0,0,0,0,0,0,0,0,0,0,0,0,0,0,0,0,0,0,0,0,0,0,0,0,0,0,0,0,0],"sum_hessian":[1.2562015E3,6.465967E2,6.096048E2,4.6741324E2,1.7918346E2,5.374773E2,7.2127495E1,3.3073077E2,1.3668246E2,1.4077298E2,3.8410473E1,1.4426917E2,3.9320816E2,4.9272256E0,6.720027E1,3.188054E2,1.1925391E1,7.5730064E1,6.0952404E1,1.990384E1,1.8506634E1,3.6376352E2,2.9444645E1,5.4254143E1,1.2946127E1,1.8561201E2,1.3319337E2,2.4690758E1,3.6261646E1,5.0090775E0,1.4894761E1,3.5055383E2,1.3209671E1,1.1594306E1,1.7850338E1,3.5805923E1,1.844822E1,1.1879164E1,1.0669631E0,1.5186613E2,3.3745888E1,1.08428E2,2.4765371E1,2.2885578E1,1.8051797E0,1.4032191E0,3.6058586E0,3.4439783E2,6.1560135E0,1.0175656E1,3.0340145E0,8.873706E0,2.7206006E0,3.9437668E0,1.390657E1,3.4484867E1,1.321055E0,8.293816E0,1.0154404E1,1.3025354E2,2.1612597E1,4.277514E0,2.9468376E1,1.00004326E2,8.423672E0,1.1438316E1,1.3327056E1,1.1547077E1,1.1338501E1,3.1905817E2,2.5339651E1,2.1121758E1,1.3363111E1,3.1465747E0,7.0078287E0,1.26695076E2,3.558459E0,1.6026497E1,5.5861E0,2.2678589E1,6.7897873E0,7.1274895E1,2.8729435E1,6.675124E0,4.763192E0,7.396059E0,5.9309964E0,4.921323E0,6.417178E0,6.85875E1,2.5047067E2,1.2242695E1,8.879063E0,2.0079358E0,1.1355175E1,1.1319994E0,5.875829E0,1.1059833E2,1.609675E1,1.1964005E1,4.0624914E0,1.6043713E1,6.634875E0,5.0037675E0,1.7860199E0,6.6547295E1,4.7275968E0,1.6590155E1,1.2139278E1,3.3572075E0,3.3179166E0,3.6854808E0,3.7105784E0,2.4877796E0,3.4432166E0,4.2471285E0,2.1700497E0,4.0228348E1,2.8359158E1,1.9969206E2,5.0778603E1,3.7810361E0,7.5741386E0,2.3286145E0,3.5472147E0,1.0719279E2,3.4055371E0,1.2463146E1,3.6336038E0,2.7399747E0,1.3225167E0,1.0121851E1,5.9218626E0,2.1500664E0,4.4848084E0,3.030901E0,1.9728665E0,2.4761512E0,6.4071144E1,7.9673305E0,8.622825E0,4.3925695E0,7.746709E0,1.1102824E0,2.600296E0,3.1064854E0,1.1406432E0,3.3190773E1,7.0375757E0,5.0006275E0,2.335853E1,1.704731E2,2.9218964E1,1.4162838E1,3.6615765E1,2.1176584E0,1.6633778E0,2.3671098E0,5.207029E0,9.4081795E1,1.3110996E1,5.547478E0,6.9156675E0,2.5648022E0,1.0688015E0,8.557328E0,1.5645225E0,4.5849495E0,1.3369129E0,3.3201318E0,1.1646765E0,4.210083E1,2.1970314E1,3.806617E0,4.1607137E0,2.290713E0,5.4559956E0,2.899895E1,4.1918225E0,5.867265E0,1.1703105E0,9.201374E1,7.845936E1,7.054352E0,7.1084867E0,2.7210708E0,3.3894695E1,8.535997E1,8.721825E0,9.884716E0,3.2262795E0,4.4058847E0,1.1415933E0,3.9443275E1,2.6575546E0,9.592082E0,1.2378232E1,2.7497633E1,1.5013154E0,7.262121E1,1.939253E1,8.3039696E1,2.3202748E0,7.630397E0,1.0914273E0,8.154102E0,1.7306145E0,2.2551785E1,1.6891493E1,7.6835465E0,1.908536E0,1.2600085E0,1.1118223E1,2.4325712E1,3.1719215E0,5.2060707E1,2.0560503E1,6.8441076E0,1.3099942E0,2.0961134E1,1.59065E0,1.0382241E1,6.509252E0,4.6668556E1,5.392153E0,1.7184986E1,3.7761486E0],"tree_param":{"num_deleted":"0","num_feature":"30","num_nodes":"227","size_leaf_vector":"0"}},{"base_weights":[1.635882E-3,-5.1935214E-1,2.3550332E-1,-5.907573E-1,8.3952114E-2,1.2605866E0,9.205809E-2,-7.0384127E-1,-2.549325E-1,1.0948566E0,-1.0937897E-1,2.683326E-1,-5.3377193E-1,-6.1790174E-1,-1.0249288E0,-2.804002E-2,-6.155985E-1,-2.351354E-1,4.1511786E-1,-1.810352E-1,4.668545E-1,-7.3437226E-1,-3.776128E-1,-6.3516176E-1,9.0497345E-1,-1.0859128E0,-7.162214E-1,8.508186E-2,-7.749718E-1,-1.0632437E0,-2.5326085E-1,-9.83192E-2,-4.825185E-1,-1.9771436E-1,7.922316E-1,2.6892178E-2,-6.4694315E-1,6.559254E-1,-1.1201274E-3,-5.086462E-1,-8.996089E-1,-1.64142E-1,-5.575289E-1,-5.531981E-1,-9.608208E-1,1.7242157E-1,-5.115207E-1,-6.3630804E-2,-8.122653E-1,6.1992463E-2,-6.9538313E-1,-6.686113E-1,-7.461262E-2,2.206436E-1,-5.1002926E-1,-9.43618E-1,-3.0500135E-1,5.125073E-1,1.2072706E0,-9.6956916E-2,1.133084E0,-5.9095645E-1,2.4444437E-1,-2.3980302E-1,8.6275876E-1,-7.5160563E-1,-4.837217E-1,-3.3753112E-1,-6.915747E-1,2.807885E-1,-2.960011E-1,-6.2469923E-1,-1.9590445E-1,-2.923365E-1,4.8241663E-1,3.339959E-1,-1.3669734E-1,-1.4093658E-1,-9.0446544E-1,-2.4872161E-1,9.776017E-2,8.371269E-2,8.720573E-1,-6.609201E-1,-1.5339426E-2,-9.925336E-1,-4.5015614E-2,-3.4978572E-1,3.4603095E-1,5.962681E-1,-3.4285003E-1,5.9064843E-2,-7.507602E-1,-3.7486675E-1,-9.217785E-1,-2.9557335E-1,1.6680196E-1,-6.1687726E-1,-3.4928393E-1,-2.153977E-1,-7.901215E-1,-6.1907333E-1,-9.4723916E-1,2.3026109E-1,7.539629E-1,-7.142418E-1,7.694784E-2,-2.0559312E-1,-8.123932E-1,-7.924569E-2,-5.36313E-1,5.705704E-1,1.06484324E-1,4.705894E-1,-2.0577253E-1,-3.4835666E-2,-2.3524925E-1,1.0790513E-3,1.0207974E0,9.44122E-1,2.5625213E-3,-8.42796E-1,-4.0461364E-1,-6.987745E-1,3.6782E-1,-2.916677E-1,-5.8730483E-1,6.96871E-1,2.8791258E-1,-8.2154475E-2,-6.240599E-1,2.5347877E-1,-1.4745846E-1,-1.5251774E-1,-7.0986044E-1,-1.083535E0,-2.0539956E-1,-2.2621319E-1,-5.3007907E-1,-4.2629296E-1,9.8917866E-1,1.03884146E-1,-7.2679263E-1,-4.4109455E-1,-3.4883294E-2,-5.144856E-1,2.01267E-2,-3.3266014E-1,-1.0439076E0,-3.9097825E-1,-7.306698E-1,3.182632E-1,2.8702274E-2,2.919855E-1,-3.6692145E-1,-3.8796732E-1,1.8045524E-1,-2.8146064E-1,-7.2074413E-1,7.0025575E-1,1.8833385E-1,5.434496E-1,1.2235908E-1,3.1906608E-1,-2.4603957E-1,-4.428024E-1,2.0984891E-1,-1.4666891E-1,3.3015847E-1,-1.0344661E0,-3.0100834E-1,-2.4386193E-1,-6.8685335E-1,-3.9110866E-1,-1.5806477E-1,5.539472E-1,1.2071235E0,1.1276272E-1,4.609705E-1,-2.8618374E-1,3.396034E-1,-8.4316057E-1,-2.8636947E-1,1.1550575E-1,1.0513154E0,2.2097471E-1,-4.1547617E-1,7.732014E-3,-4.5358813E-1,-2.9208562E-1,-1.2963298E-3,-6.290892E-1,-4.5884002E-2,-5.4629487E-1,-2.176921E-1,-6.237927E-2,2.4796898E-2,-7.446792E-1,4.087858E-1,1.1253321E0,-1.9301431E-1,2.0956792E-2,-8.1369746E-1,-1.1362076E0,-3.2601804E-1,-6.1084914E-1,1.457613E0,-9.6915525E-1,-5.0717705E-1,3.873888E-1,-1.05201565E-1,2.4138996E-1,-2.1902391E-1,4.0259093E-1,3.2102145E-2,3.4827866E-2,-6.0762346E-1,2.2728734E-2,-4.3240666E-1,-4.3177083E-1,1.2472313E-1,-5.371882E-2,-6.098434E-1,1.0061436E0,9.043184E-2,-1.1145451E0,-3.144319E-1,1.1891042E-1,-7.527505E-1,-4.2603996E-2,-3.6519897E-1,5.902437E-1,-6.4558305E-2,2.450116E-1,-1.02767475E-1,9.1476744E-1,2.830687E-1,-1.1402303E-1,-5.15479E-1,4.5915633E-1,4.9602732E-2,-4.3663445E-1,-3.1341895E-2,-1.00144325E-2,4.5077527E-1,3.319401E-1,-1.9795512E-1,-6.294081E-1,-5.8683477E-2,2.0727985E-1,-1.4875872E-1,-7.4739534E-1,6.907323E-4,-1.4194521E-1,-4.7894245E-1,-4.5851034E-1,3.7223792E-1,-1.2146558E-1,-6.173585E-1,-4.7681883E-2,7.506407E-1,-3.2582566E-1,1.2619783E-1,-5.952594E-2,1.2793398E-1,-4.50435E-1,-7.2035295E-1,1.9936794E-1,5.178418E-1,-3.154064E-1,1.252542E-1,5.552693E-1,-7.854559E-3,1.47896055E-2,-2.0575339E-1,-1.0030919E-1,-1.1092633E0,-1.0978802E-1,2.5801426E-1,-1.1510721E-1,9.987842E-2,5.41483E-1,1.079607E0,2.5445876E-1,-3.9967394E-1,3.841345E-1,-1.4305452E-1,-2.11099E-1,1.6475344E-1,-8.093314E-2,4.976554E-1,1.854337E-1,-1.8355335E-1,9.481217E-1,-8.4794484E-2,4.9362487E-1,-2.2619152E-1,3.8359395E-1,-6.0997677E-1,-6.896822E-1,2.585604E-1,4.9683923E-1,-3.208329E-1,-3.3275053E-1,1.8721706E-1,-1.7692064E-1,-9.743251E-2,6.980931E-2,-6.450249E-1,-8.578754E-2,-5.9491044E-1,-2.5886455E-1,3.702993E-1,8.735801E-1,2.8509495E-1,-5.7783157E-2,7.5996894E-1,3.9209213E-2,-4.190265E-1,1.3117068E-1,-2.9715976E-1,-1.3910583E-1,3.653092E-2,2.983913E-1,-1.770034E-2,-3.0753383E-2,-1.3794802E-1,5.8652884E-1,2.0121221E-1,4.298394E-1,-3.0658675E-2,1.9315831E-2,3.6877957E-1,-4.893718E-1,-6.884365E-3,2.456188E-1,-2.3993343E-1,-2.3310055E-1,-5.5908438E-2,8.875304E-2,-1.6655698E-1,6.1703563E-2,-4.613735E-1,1.11093774E-1,4.9615076E-1,-2.390261E-1,9.720502E-2,-1.5367246E-1,1.8169765E-1,4.227775E-1,7.2880244E-1,4.344811E-1,-1.700982E-1,3.1942043E-1,6.853022E-1,-4.8930652E-2,9.7701445E-2,1.15369685E-1,6.294005E-1,-8.165781E-2,6.6864E-2,1.7670095E-1,-2.781198E-1,1.8008439E-1,6.8874145E-1,1.1175851E0,5.752535E-1,5.881632E-1,-8.124978E-2,1.2367634E-1,2.8264204E-1,9.6826845E-1,5.6657714E-1,7.024736E-1,3.5479614E-1,-1.495256E-2,4.9756563E-1],"categories":[],"categories_nodes":[],"categories_segments":[],"categories_sizes":[],"default_left":[1,1,1,1,1,0,1,1,1,0,1,1,1,1,1,1,1,1,1,1,1,1,1,1,0,0,0,1,0,0,1,1,1,0,0,1,1,1,1,1,0,1,1,1,0,1,1,1,0,1,0,1,1,1,1,1,1,1,0,1,0,1,0,1,0,0,1,1,1,1,1,1,0,1,1,1,1,0,0,0,0,1,1,1,1,0,0,1,0,1,1,1,0,1,1,1,1,1,1,1,1,1,0,1,0,0,1,0,0,1,1,1,0,1,0,1,1,1,0,0,0,1,1,0,0,1,0,1,1,1,1,1,1,1,0,0,0,1,1,0,0,0,0,1,1,1,1,1,1,1,1,1,1,1,0,1,0,1,0,0,0,0,0,0,1,0,0,1,1,1,1,1,0,0,0,1,0,1,1,1,1,0,1,1,0,1,1,1,1,1,1,0,0,1,0,0,0,0,1,0,1,1,0,0,0,1,0,0,0,1,1,1,0,0,0,0,0,0,0,0,0,1,1,0,1,0,0,0,0,1,0,1,1,1,1,0,1,0,0,0,0,0,0,1,1,1,1,0,1,1,1,0,0,1,1,0,0,0,0,0,0,1,1,0,0,0,0,0,1,0,0,0,0,1,1,1,0,1,1,1,0,1,0,0,0,1,0,0,0,0,0,1,1,0,1,0,0,0,0,0,0,0,0,0,0,1,1,0,0,1,0,0,0,0,1,1,0,1,0,0,0,0,0,0,0,0,0,1,1,1,0,1,1,0,1,0,0,0,0,0,0,0,0,0,0,0,1,0,0,1,1,1,0,0,0,0,0,0,0,0,0,0,0,1,1,0,1,0,0,0,0,0,0,0,1,0,0],"id":2,"left_children":[1,3,5,7,9,-1,11,13,15,-1,17,19,21,23,25,27,29,31,33,35,37,39,41,43,-1,-1,-1,45,-1,-1,47,49,51,-1,-1,53,55,57,59,61,-1,63,65,67,-1,69,71,73,-1,75,-1,77,79,81,83,85,87,89,-1,91,-1,93,-1,95,-1,-1,97,99,101,103,105,107,-1,109,111,113,115,-1,-1,-1,-1,117,119,121,123,-1,-1,125,-1,127,129,131,-1,133,135,137,139,141,143,145,147,149,-1,151,-1,-1,153,-1,-1,155,157,159,-1,161,-1,163,165,167,-1,-1,-1,169,171,-1,-1,173,-1,175,177,179,181,183,185,187,-1,-1,-1,189,191,-1,-1,-1,-1,193,195,197,199,201,203,205,207,209,211,213,-1,215,-1,217,-1,-1,-1,-1,-1,-1,219,-1,-1,221,223,225,227,229,-1,-1,-1,231,-1,233,235,237,239,-1,241,243,-1,245,247,249,251,253,255,-1,-1,257,-1,-1,-1,-1,259,-1,261,263,-1,-1,-1,265,-1,-1,-1,267,269,271,-1,-1,-1,-1,-1,-1,-1,-1,-1,273,275,-1,277,-1,-1,-1,-1,279,-1,281,283,285,287,-1,289,-1,-1,-1,-1,-1,-1,291,293,295,297,-1,299,301,303,-1,-1,305,307,-1,-1,-1,-1,-1,-1,309,311,-1,-1,-1,-1,-1,313,-1,-1,-1,-1,315,317,319,-1,321,323,325,-1,327,-1,-1,-1,329,-1,-1,-1,-1,-1,331,333,-1,335,-1,-1,-1,-1,-1,-1,-1,-1,-1,-1,337,339,-1,-1,341,-1,-1,-1,-1,343,345,-1,347,-1,-1,-1,-1,-1,-1,-1,-1,-1,349,351,353,-1,355,357,-1,359,-1,-1,-1,-1,-1,-1,-1,-1,-1,-1,-1,361,-1,-1,363,365,367,-1,-1,-1,-1,-1,-1,-1,-1,-1,-1,-1,369,371,-1,373,-1,-1,-1,-1,-1,-1,-1,375,-1,-1],"loss_changes":[1.287081E2,1.4148384E1,1.0708888E2,1.0938744E1,7.0601254E0,0E0,7.081844E1,5.394554E0,6.1461916E0,0E0,2.1238444E0,4.4735897E1,4.1435814E0,5.170517E0,6.198883E-2,4.060896E0,4.4405184E0,8.12824E-1,1.6132305E0,1.49446335E1,3.0741997E1,1.8069801E0,3.035265E0,4.098793E0,0E0,0E0,0E0,2.2747722E0,0E0,0E0,1.7885851E0,1.7297962E0,6.17748E-1,0E0,0E0,1.1295724E1,4.5396996E0,1.8948616E1,1.1085816E1,1.877717E0,0E0,3.2099478E0,2.632742E-1,3.9728851E0,0E0,1.9791731E0,7.804227E-2,1.8953966E0,0E0,8.460492E-1,0E0,6.085768E-1,1.4079235E-1,7.0354805E0,2.1401882E0,1.0543251E0,8.0867195E-1,1.4398468E1,0E0,9.6361065E0,0E0,1.4773273E0,0E0,8.8337374E-1,0E0,0E0,4.0229607E-1,2.982883E0,9.873886E-1,5.6390834E-1,1.225536E0,1.2190807E-1,0E0,5.046179E-1,8.9176536E-2,5.791695E-1,8.484252E-2,0E0,0E0,0E0,0E0,5.183674E0,8.582754E-1,6.869097E-1,2.2882936E0,0E0,0E0,1.4017844E-1,0E0,5.4083557E0,1.2906725E0,3.1226246E0,0E0,1.1661587E0,8.654938E-1,4.1205788E-1,2.897341E0,1.3456182E0,5.4683423E-1,3.2714798E0,1.0165391E0,1.4715443E0,0E0,5.1077545E-1,0E0,0E0,5.7195276E-1,0E0,0E0,6.144646E-1,1.9598484E-2,3.8413763E-2,0E0,7.368672E-2,0E0,5.068879E-1,5.120263E-1,3.0887759E0,0E0,0E0,0E0,9.3213177E-1,3.350252E-1,0E0,0E0,2.0541656E-1,0E0,9.222229E0,1.347872E0,1.0136809E0,3.9886928E-1,4.27612E0,3.833552E0,5.6111676E-1,0E0,0E0,0E0,3.9942193E-1,2.933365E-1,0E0,0E0,0E0,0E0,2.3335457E-1,1.0552589E-2,4.6470494E0,6.544924E0,9.7971416E-1,9.922123E-2,1.0982594E1,1.917799E0,6.350961E-1,5.8013564E-1,9.73798E-2,0E0,3.3878022E-1,0E0,1.7640355E-1,0E0,0E0,0E0,0E0,0E0,0E0,3.3989543E-1,0E0,0E0,1.8550061E0,3.098755E0,1.3591385E-1,9.5066667E-1,1.9463015E-1,0E0,0E0,0E0,2.458126E0,0E0,7.171489E-1,1.5903153E0,2.4600637E-1,1.13472134E-1,0E0,1.7485353E-1,1.4850917E0,0E0,8.378425E-1,1.6638803E0,2.9707947E-1,5.3860515E-1,5.1744676E-1,1.3862036E0,0E0,0E0,2.1266437E-1,0E0,0E0,0E0,0E0,7.728491E-1,0E0,1.0320029E0,4.4091024E-2,0E0,0E0,0E0,7.770729E-2,0E0,0E0,0E0,3.3012366E-1,2.1562985E-1,4.628149E-1,0E0,0E0,0E0,0E0,0E0,0E0,0E0,0E0,0E0,3.9484033E-1,1.7291152E0,0E0,5.527404E-1,0E0,0E0,0E0,0E0,5.6635454E-2,0E0,1.8474312E0,8.368821E-1,8.831672E-1,3.2273608E-1,0E0,1.4387144E0,0E0,0E0,0E0,0E0,0E0,0E0,9.3546444E-1,2.6389403E0,1.3303714E0,1.2175084E0,0E0,2.071089E0,7.9635644E-1,3.9367947E-1,0E0,0E0,2.9883087E-3,8.5394526E-1,0E0,0E0,0E0,0E0,0E0,0E0,1.033092E0,8.090918E-1,0E0,0E0,0E0,0E0,0E0,5.627692E-1,0E0,0E0,0E0,0E0,1.4967239E0,6.303995E-1,2.5219825E-1,0E0,3.863904E-2,1.03321195E-1,2.2322908E-3,0E0,1.3334084E0,0E0,0E0,0E0,2.324009E-1,0E0,0E0,0E0,0E0,0E0,3.8872126E-1,7.8436625E-1,0E0,3.4306154E-1,0E0,0E0,0E0,0E0,0E0,0E0,0E0,0E0,0E0,0E0,2.8094873E-2,1.16998315E-1,0E0,0E0,5.846183E-1,0E0,0E0,0E0,0E0,2.1706212E-1,7.3699945E-1,0E0,2.0337792E-1,0E0,0E0,0E0,0E0,0E0,0E0,0E0,0E0,0E0,1.6279011E0,1.1645895E0,7.678819E-2,0E0,4.6903137E-2,3.317585E-1,0E0,6.2013578E-2,0E0,0E0,0E0,0E0,0E0,0E0,0E0,0E0,0E0,0E0,0E0,4.790231E-1,0E0,0E0,2.5234141E0,1.9291325E0,6.830524E-1,0E0,0E0,0E0,0E0,0E0,0E0,0E0,0E0,0E0,0E0,0E0,9.694338E-2,1.0757446E-1,0E0,6.748123E-1,0E0,0E0,0E0,0E0,0E0,0E0,0E0,7.5050557E-1,0E0,0E0],"parents":[2147483647,0,0,1,1,2,2,3,3,4,4,6,6,7,7,8,8,10,10,11,11,12,12,13,13,14,14,15,15,16,16,17,17,18,18,19,19,20,20,21,21,22,22,23,23,27,27,30,30,31,31,32,32,35,35,36,36,37,37,38,38,39,39,41,41,42,42,43,43,45,45,46,46,47,47,49,49,51,51,52,52,53,53,54,54,55,55,56,56,57,57,59,59,61,61,63,63,66,66,67,67,68,68,69,69,70,70,71,71,73,73,74,74,75,75,76,76,81,81,82,82,83,83,84,84,87,87,89,89,90,90,91,91,93,93,94,94,95,95,96,96,97,97,98,98,99,99,100,100,101,101,103,103,106,106,109,109,110,110,111,111,113,113,115,115,116,116,117,117,121,121,122,122,125,125,127,127,128,128,129,129,130,130,131,131,132,132,133,133,137,137,138,138,143,143,144,144,145,145,146,146,147,147,148,148,149,149,150,150,151,151,152,152,153,153,155,155,157,157,164,164,167,167,168,168,169,169,170,170,171,171,175,175,177,177,178,178,179,179,180,180,182,182,183,183,185,185,186,186,187,187,188,188,189,189,190,190,193,193,198,198,200,200,201,201,205,205,209,209,210,210,211,211,221,221,222,222,224,224,229,229,231,231,232,232,233,233,234,234,236,236,243,243,244,244,245,245,246,246,248,248,249,249,250,250,253,253,254,254,261,261,262,262,268,268,273,273,274,274,275,275,277,277,278,278,279,279,281,281,285,285,291,291,292,292,294,294,305,305,306,306,309,309,314,314,315,315,317,317,327,327,328,328,329,329,331,331,332,332,334,334,346,346,349,349,350,350,351,351,363,363,364,364,366,366,374,374],"right_children":[2,4,6,8,10,-1,12,14,16,-1,18,20,22,24,26,28,30,32,34,36,38,40,42,44,-1,-1,-1,46,-1,-1,48,50,52,-1,-1,54,56,58,60,62,-1,64,66,68,-1,70,72,74,-1,76,-1,78,80,82,84,86,88,90,-1,92,-1,94,-1,96,-1,-1,98,100,102,104,106,108,-1,110,112,114,116,-1,-1,-1,-1,118,120,122,124,-1,-1,126,-1,128,130,132,-1,134,136,138,140,142,144,146,148,150,-1,152,-1,-1,154,-1,-1,156,158,160,-1,162,-1,164,166,168,-1,-1,-1,170,172,-1,-1,174,-1,176,178,180,182,184,186,188,-1,-1,-1,190,192,-1,-1,-1,-1,194,196,198,200,202,204,206,208,210,212,214,-1,216,-1,218,-1,-1,-1,-1,-1,-1,220,-1,-1,222,224,226,228,230,-1,-1,-1,232,-1,234,236,238,240,-1,242,244,-1,246,248,250,252,254,256,-1,-1,258,-1,-1,-1,-1,260,-1,262,264,-1,-1,-1,266,-1,-1,-1,268,270,272,-1,-1,-1,-1,-1,-1,-1,-1,-1,274,276,-1,278,-1,-1,-1,-1,280,-1,282,284,286,288,-1,290,-1,-1,-1,-1,-1,-1,292,294,296,298,-1,300,302,304,-1,-1,306,308,-1,-1,-1,-1,-1,-1,310,312,-1,-1,-1,-1,-1,314,-1,-1,-1,-1,316,318,320,-1,322,324,326,-1,328,-1,-1,-1,330,-1,-1,-1,-1,-1,332,334,-1,336,-1,-1,-1,-1,-1,-1,-1,-1,-1,-1,338,340,-1,-1,342,-1,-1,-1,-1,344,346,-1,348,-1,-1,-1,-1,-1,-1,-1,-1,-1,350,352,354,-1,356,358,-1,360,-1,-1,-1,-1,-1,-1,-1,-1,-1,-1,-1,362,-1,-1,364,366,368,-1,-1,-1,-1,-1,-1,-1,-1,-1,-1,-1,370,372,-1,374,-1,-1,-1,-1,-1,-1,-1,376,-1,-1],"split_conditions":[3.3875764E-4,2.9217556E-2,9.989859E-1,7.557158E-2,9.6510565E-1,6.302933E-1,9.973405E-1,9.361844E-1,8.581865E-1,5.474283E-1,8.4309876E-2,7.00038E-3,9.783932E-2,2.9044801E-2,5E-1,8.521646E-1,8.840901E-2,5E-1,2.3374659E-1,9.5752054E-1,9.9974096E-1,8.299134E-1,9.9192333E-1,9.309752E-1,4.5248672E-1,-5.429564E-1,-3.581107E-1,9.621817E-1,-3.874859E-1,-5.316219E-1,5.271792E-1,5E-1,5E-1,-9.885718E-2,3.961158E-1,9.991549E-1,1.6373001E-1,4.756612E-4,9.256589E-3,1.700866E-1,-4.4980446E-1,1.3766064E-1,5E-1,9.599126E-1,-4.804104E-1,9.2442846E-1,5E-1,2.2032794E-1,-4.0613264E-1,5E-1,-3.4769157E-1,5E-1,5E-1,8.4505475E-4,7.135689E-2,9.7944394E-2,2.0934384E-1,9.940992E-1,6.036353E-1,9.782356E-1,5.66542E-1,5.770894E-1,1.22222185E-1,5E-1,4.3137938E-1,-3.7580281E-1,7.107825E-2,8.515401E-1,7.934554E-1,1.3967374E-1,8.523292E-2,5E-1,-9.7952224E-2,9.11591E-1,8.237444E-1,5E-1,5E-1,-7.046829E-2,-4.5223272E-1,-1.2436081E-1,4.8880085E-2,1.5108238E-2,6.8586177E-1,5E-1,4.3546107E-2,-4.962668E-1,-2.2507807E-2,5E-1,1.7301548E-1,9.940976E-1,9.08942E-1,9.748703E-1,-3.753801E-1,9.229106E-1,5E-1,8.8525414E-1,4.5498663E-1,7.507086E-1,4.351291E-2,3.4949616E-2,5E-1,9.3741834E-1,-4.7361958E-1,8.459885E-1,3.7698144E-1,-3.571209E-1,6.964996E-1,-1.0279656E-1,-4.061966E-1,8.840901E-2,5E-1,3.338964E-1,5.3242162E-2,5E-1,-1.0288627E-1,5E-1,5E-1,1.9934934E-2,5.103987E-1,4.72061E-1,1.2812606E-3,5E-1,5E-1,-3.4938726E-1,1.8391E-1,9.472824E-2,-2.9365242E-1,5.6646793E-4,2.4985156E-3,1.9621658E-1,5E-1,7.00038E-3,7.294089E-1,5E-1,-3.5493022E-1,-5.417675E-1,-1.0269978E-1,3.526415E-2,5E-1,-2.1314648E-1,4.9458933E-1,5.1942073E-2,-3.6339632E-1,1.408093E-1,5E-1,3.870441E-1,9.8216265E-1,5E-1,5E-1,2.456492E-3,2.1558791E-1,9.0023315E-1,5E-1,8.035004E-1,-1.8346073E-1,5E-1,9.022762E-2,5E-1,-3.6037207E-1,3.5012788E-1,9.416693E-2,2.717248E-1,6.117954E-2,1.5953304E-1,5E-1,-2.214012E-1,1.04924455E-1,9.875215E-1,9.9870336E-1,5E-1,5E-1,5E-1,-3.4342667E-1,-1.9555433E-1,-7.9032384E-2,9.979442E-1,6.0356176E-1,9.9347913E-1,9.9587005E-1,5E-1,6.962166E-1,-4.2158028E-1,5E-1,2.144578E-1,5.256577E-1,8.358717E-1,4.2047358E-1,6.4870936E-1,5E-1,5E-1,3.526415E-2,-3.145446E-1,-2.2942001E-2,8.789457E-1,-1.0884605E-1,-3.1189635E-2,1.2398449E-2,-3.723396E-1,5E-1,5.6266606E-1,4.008739E-2,5E-1,-4.0684873E-1,-5.681038E-1,-1.6300902E-1,5E-1,7.288065E-1,-4.8457763E-1,-2.5358853E-1,1.9522421E-2,5E-1,5E-1,-1.0951196E-1,2.0129547E-1,1.6051073E-2,1.7413933E-2,-3.0381173E-1,1.1364367E-2,-2.1620333E-1,-2.1588542E-1,6.2361564E-2,9.875215E-1,5E-1,5.030718E-1,2.7177664E-2,-5.5727255E-1,-1.5721595E-1,5.945521E-2,-3.7637526E-1,5E-1,-1.8259948E-1,5.900792E-3,5E-1,9.7920835E-1,5E-1,4.5738372E-1,1.6676897E-2,-5.7011515E-2,-2.577395E-1,2.2957817E-1,2.4801366E-2,-2.1831723E-1,-1.5670948E-2,8.502519E-1,7.855422E-1,9.4633836E-1,5E-1,-3.1470406E-1,5E-1,5E-1,5E-1,-3.7369767E-1,3.4536616E-4,5E-1,5E-1,-2.2925517E-1,1.8611896E-1,-6.073279E-2,-3.0867925E-1,-2.3840941E-2,3.7532035E-1,7.721679E-1,9.0309754E-2,-2.976297E-2,6.396699E-2,-2.252175E-1,-3.6017647E-1,9.968397E-2,9.945806E-1,-1.577032E-1,6.26271E-2,2.7763465E-1,-3.9272797E-3,2.462861E-2,5E-1,7.338514E-1,-5.5463165E-1,5E-1,5E-1,5E-1,4.993921E-2,9.979442E-1,5.398035E-1,1.2722938E-1,-1.9983697E-1,7.2714335E-1,-7.152726E-2,-1.055495E-1,8.237672E-2,-4.046657E-2,2.488277E-1,1.3197118E-1,1.15736485E-1,4.7406086E-1,5E-1,2.4681243E-1,-1.1309576E-1,1.9179697E-1,-3.0498838E-1,-3.448411E-1,1.292802E-1,2.4841961E-1,-1.6041645E-1,-1.6637526E-1,9.360853E-2,5E-1,5E-1,3.4904655E-2,-3.2251245E-1,6.484599E-1,-2.9745522E-1,-1.2943228E-1,1.8514965E-1,4.3679005E-1,5E-1,2.286538E-2,3.7998447E-1,5E-1,-2.0951325E-1,6.558534E-2,-1.4857988E-1,-6.955291E-2,1.826546E-2,1.4919566E-1,-8.85017E-3,-1.5376692E-2,-6.897401E-2,1.0864887E-2,9.246062E-1,1.44933015E-2,-1.5329338E-2,5.032681E-2,1.3197118E-1,-2.446859E-1,3.8426352E-1,1.228094E-1,-1.19966716E-1,-1.16550274E-1,-2.7954219E-2,4.437652E-2,-8.327849E-2,3.0851781E-2,-2.3068675E-1,5.5546887E-2,2.4807538E-1,-1.1951305E-1,5.4247946E-1,-7.683623E-2,9.0848826E-2,5.330067E-2,9.66921E-1,5.5081236E-1,-8.50491E-2,1.5971021E-1,3.426511E-1,-2.4465326E-2,4.8850723E-2,5.7684842E-2,3.1470025E-1,-4.0828906E-2,3.3432E-2,8.8350475E-2,-1.390599E-1,2.6607522E-1,9.985663E-1,5.5879253E-1,9.841351E-1,2.940816E-1,-4.062489E-2,6.183817E-2,1.4132102E-1,4.8413423E-1,2.8328857E-1,3.512368E-1,5E-1,-7.47628E-3,2.4878281E-1],"split_indices":[26,4,26,10,4,0,19,24,15,0,29,10,10,24,15,24,21,15,3,11,15,23,15,15,0,0,0,29,0,0,27,24,27,0,0,15,29,15,19,4,0,15,21,11,0,19,21,24,0,10,0,10,10,4,29,4,4,27,0,24,0,21,0,29,0,0,3,23,27,15,23,3,0,19,3,11,21,0,0,0,0,19,27,23,3,0,0,24,0,4,3,3,0,29,24,4,4,23,27,3,21,29,0,21,0,0,27,0,0,3,29,19,0,21,0,3,3,29,0,0,0,27,27,0,0,3,0,4,21,4,23,3,23,24,0,0,0,24,27,0,0,0,0,24,24,27,3,29,29,29,3,27,3,3,0,23,0,3,0,0,0,0,0,0,23,0,0,27,29,24,21,21,0,0,0,24,0,3,23,23,23,0,21,27,0,27,4,3,27,3,3,0,0,23,0,0,0,0,19,0,19,19,0,0,0,3,0,0,0,3,3,23,0,0,0,0,0,0,0,0,0,21,3,0,3,0,0,0,0,4,0,19,3,23,23,0,3,0,0,0,0,0,0,21,23,4,21,0,21,27,27,0,0,21,23,0,0,0,0,0,0,29,29,0,0,0,0,0,3,0,0,0,0,21,3,23,0,21,23,3,0,29,0,0,0,29,0,0,0,0,0,23,23,0,21,0,0,0,0,0,0,0,0,0,0,23,23,0,0,27,0,0,0,0,23,3,0,23,0,0,0,0,0,0,0,0,0,3,3,3,0,4,4,0,4,0,0,0,0,0,0,0,0,0,0,0,23,0,0,23,3,21,0,0,0,0,0,0,0,0,0,0,0,21,23,0,23,0,0,0,0,0,0,0,21,0,0],"split_type":[0,0,0,0,0,0,0,0,0,0,0,0,0,0,0,0,0,0,0,0,0,0,0,0,0,0,0,0,0,0,0,0,0,0,0,0,0,0,0,0,0,0,0,0,0,0,0,0,0,0,0,0,0,0,0,0,0,0,0,0,0,0,0,0,0,0,0,0,0,0,0,0,0,0,0,0,0,0,0,0,0,0,0,0,0,0,0,0,0,0,0,0,0,0,0,0,0,0,0,0,0,0,0,0,0,0,0,0,0,0,0,0,0,0,0,0,0,0,0,0,0,0,0,0,0,0,0,0,0,0,0,0,0,0,0,0,0,0,0,0,0,0,0,0,0,0,0,0,0,0,0,0,0,0,0,0,0,0,0,0,0,0,0,0,0,0,0,0,0,0,0,0,0,0,0,0,0,0,0,0,0,0,0,0,0,0,0,0,0,0,0,0,0,0,0,0,0,0,0,0,0,0,0,0,0,0,0,0,0,0,0,0,0,0,0,0,0,0,0,0,0,0,0,0,0,0,0,0,0,0,0,0,0,0,0,0,0,0,0,0,0,0,0,0,0,0,0,0,0,0,0,0,0,0,0,0,0,0,0,0,0,0,0,0,0,0,0,0,0,0,0,0,0,0,0,0,0,0,0,0,0,0,0,0,0,0,0,0,0,0,0,0,0,0,0,0,0,0,0,0,0,0,0,0,0,0,0,0,0,0,0,0,0,0,0,0,0,0,0,0,0,0,0,0,0,0,0,0,0,0,0,0,0,0,0,0,0,0,0,0,0,0,0,0,0,0,0,0,0,0,0,0,0,0,0,0,0,0,0,0,0,0,0,0,0,0,0,0,0,0,0,0,0,0,0,0,0],"sum_hessian":[1.0543475E3,3.2627713E2,7.2807043E2,2.917655E2,3.451165E1,8.841982E1,6.396506E2,2.1744748E2,7.431801E1,4.79196E0,2.9719688E1,4.995235E2,1.401271E2,1.7384265E2,4.3604824E1,4.628081E1,2.8037197E1,2.4417015E1,5.3026733E0,1.5308755E2,3.4643594E2,5.9715076E1,8.041203E1,1.7247083E2,1.3718358E0,3.43095E1,9.295323E0,4.0963097E1,5.317718E0,1.167682E1,1.6360376E1,1.6621735E1,7.7952805E0,2.201242E0,3.1014316E0,1.0650039E2,4.6587166E1,2.4645976E2,9.997616E1,2.6961658E1,3.2753418E1,3.7651173E1,4.2760857E1,1.3994691E2,3.2523903E1,3.635229E1,4.6108046E0,1.3047967E1,3.3124092E0,1.3809938E1,2.8117971E0,4.9142118E0,2.8810687E0,7.86927E1,2.780769E1,2.4002544E1,2.2584623E1,1.97115E2,4.9344765E1,9.302993E1,6.946229E0,2.4499264E1,2.4623954E0,3.5781322E1,1.8698533E0,9.25125E0,3.3509605E1,5.604194E1,8.390498E1,2.9847748E1,6.504542E0,2.6729846E0,1.9378202E0,9.523705E0,3.5242627E0,5.542012E0,8.267926E0,2.0114865E0,2.9027252E0,1.2129612E0,1.6681073E0,6.5956726E1,1.2735974E1,2.1050741E1,6.756949E0,2.2664278E1,1.3382659E0,2.1563963E1,1.0206596E0,1.7981001E2,1.7304987E1,7.584109E1,1.7188843E1,1.6109701E1,8.389562E0,3.1705618E1,4.075703E0,1.5032206E1,1.8477402E1,4.5294853E1,1.0747085E1,6.803348E1,1.5871505E1,2.8311197E1,1.536551E0,2.6347275E0,3.8698144E0,1.4749339E0,1.1980506E0,5.790793E0,3.7329116E0,2.4354234E0,1.0888392E0,4.525066E0,1.0169463E0,4.7312536E0,3.536672E0,6.15319E1,4.4248304E0,1.1681933E1,1.0540403E0,1.097477E1,1.0075971E1,2.1314318E0,4.6255174E0,1.9114784E1,2.4491787E0,1.3462715E2,4.518287E1,9.650573E0,7.6544147E0,3.8948734E1,3.6892357E1,1.0557525E1,5.552176E0,6.426059E0,1.963503E0,2.5984713E1,5.7209053E0,2.6477726E0,1.4279305E0,1.9963266E0,1.3035879E1,1.3989305E1,4.4880967E0,1.9432926E1,2.5861925E1,4.659289E0,6.0877953E0,2.3830057E1,4.420342E1,1.930394E1,9.007257E0,2.8373892E0,1.0324249E0,2.4200444E0,3.3707483E0,2.6278176E0,1.1050938E0,1.1972306E0,1.2381928E0,3.2785015E0,1.2465645E0,1.577399E0,3.1538548E0,2.4154737E0,1.1211984E0,4.28484E1,1.8683495E1,7.4350786E0,3.539691E0,7.607237E0,2.468734E0,9.853448E0,9.261337E0,1.0679819E2,2.782896E1,2.3276546E1,2.1906322E1,6.7207823E0,2.9297907E0,3.7345288E0,3.9198859E0,3.4182236E1,4.7664948E0,1.5609764E1,2.1282595E1,7.5260024E0,3.0315225E0,1.9867414E1,6.117299E0,4.501229E0,1.2196763E0,8.528085E0,5.4612203E0,3.041558E0,1.4465384E0,1.5709585E1,3.7233415E0,3.4892542E0,2.2372671E1,3.236517E0,1.4227722E0,4.877929E0,1.209866E0,2.1895386E1,1.9346712E0,1.9770374E1,2.4433044E1,1.6668242E1,2.6356995E0,4.8601265E0,4.1471305E0,1.6051302E0,1.2322592E0,1.1151131E0,1.3049312E0,1.1532302E0,1.4745874E0,1.9916184E0,1.1622365E0,3.661622E1,6.2321825E0,4.0542393E0,1.4629256E1,6.1978745E0,1.2372041E0,2.216297E0,1.3233941E0,3.3694901E0,4.2377467E0,1.00921394E2,5.876793E0,1.4340474E1,8.936071E0,5.0028734E0,1.6903448E1,4.6938195E0,2.026963E0,1.6615299E0,1.2682608E0,2.018473E0,1.9014128E0,2.5576782E1,8.605456E0,1.2505087E1,3.1046774E0,1.2827303E1,8.455291E0,3.1652765E0,4.360726E0,1.4490848E0,1.5824379E0,1.1991682E1,7.8757315E0,2.6482687E0,3.4690304E0,1.6103594E0,6.9177256E0,1.9628851E0,1.7604563E0,1.5784611E1,6.5880613E0,2.1001008E0,1.1364161E0,1.0957281E1,1.0938104E1,7.8632627E0,8.804978E0,1.1856325E0,1.4500672E0,1.6077017E0,3.2524247E0,2.5864235E1,1.0751984E1,3.6792607E0,2.5529218E0,6.8226886E0,7.8065677E0,2.3604755E0,1.0090146E0,9.369229E1,7.229108E0,3.1340156E0,2.7427773E0,1.0563543E1,3.7769315E0,6.5105543E0,2.4255166E0,6.5001445E0,1.0403305E1,1.1996822E1,1.3579959E1,4.0625467E0,4.5429096E0,9.785816E0,2.71927E0,1.3160834E0,1.7885939E0,2.4360337E0,6.019257E0,2.0826151E0,1.0826613E0,2.823875E0,1.5368508E0,5.0494866E0,6.9421954E0,1.9645028E0,5.9112287E0,9.039606E0,6.745004E0,2.5325556E0,4.0555058E0,2.39343E0,6.411548E0,2.4409464E1,1.4547719E0,5.3840694E0,5.367914E0,1.8442408E0,1.83502E0,5.7248936E0,1.097795E0,6.7376275E0,1.0689402E0,1.0029361E0,1.3575393E0,8.2099976E1,1.1592309E1,9.482427E0,1.0811163E0,6.874046E0,5.122777E0,4.324371E0,9.255588E0,1.2651622E0,3.2777474E0,2.8159335E0,2.2335534E0,1.8026987E0,5.139497E0,7.0907936E0,1.9488122E0,4.350899E0,2.0606492E0,1.1001779E1,1.3407684E1,2.254177E0,3.1298923E0,4.0015404E1,4.2084576E1,7.0150833E0,4.5772257E0,8.191964E0,1.2904623E0,3.8755584E0,2.9984875E0,3.328776E0,1.7940011E0,4.5425987E0,4.712989E0,1.1500928E1,1.9067566E0,2.179996E1,1.8215445E1,1.0137722E1,3.1946852E1,5.296376E0,1.7187073E0,1.5487533E1,6.3124275E0,3.4334135E0,1.4782032E1,1.8870659E1,1.3076193E1,3.891956E0,9.1842375E0],"tree_param":{"num_deleted":"0","num_feature":"30","num_nodes":"377","size_leaf_vector":"0"}},{"base_weights":[7.0391204E-3,1.4313789E-1,-8.8219637E-1,3.2355168E-1,-2.1895613E-1,-9.550265E-1,-4.831711E-1,1.6921458E-1,1.1757959E0,-3.370934E-1,1.183711E-1,-9.6997523E-1,4.31757E-2,7.922096E-2,-8.698181E-1,5.1139814E-1,-4.1726973E-2,-4.6192974E-1,-1.3007447E-1,1.0702392E0,-8.3520226E-2,6.3341624E-1,-3.758683E-1,8.289719E-2,6.727528E-1,-4.028016E-1,1.4365244E-1,-9.4134584E-2,-5.7741046E-1,9.8952174E-1,-2.4230036E-1,2.6416847E-1,-5.016265E-1,-2.5709257E-1,1.0028033E0,-8.3141834E-1,5.2221105E-2,6.5099025E-1,-4.227718E-1,5.675805E-1,8.88237E-1,-5.190135E-1,5.101631E-2,4.4900113E-1,-1.5906267E-1,-2.2182088E-1,5.2754945E-1,-7.5186485E-1,-3.029614E-1,9.722353E-1,-3.2172778E-1,8.077371E-2,7.879234E-1,-6.960041E-1,-2.745812E-1,2.7628848E-1,-2.7440828E-1,4.683693E-2,7.178813E-1,-1.3800018E-1,-6.6918504E-1,5.966327E-1,-4.2708117E-1,-4.6632868E-1,-1.243961E0,9.2748755E-1,-1.7998226E-1,1.7582586E-1,7.16185E-1,2.6131433E-2,-3.5918468E-1,1.4881007E-2,-6.485449E-1,1.0564384E0,6.3233234E-2,-2.2799976E-1,-7.8962857E-1,1.9066055E-1,-4.422082E-1,-6.0651445E-1,-1.8305356E-2,3.03598E-1,-7.594204E-1,1.016135E0,3.2195693E-1,-3.1338555E-1,-1.1154157E0,1.1443394E-1,-7.036342E-1,4.1490766E-1,-3.0222255E-1,8.138608E-1,1.7803076E-1,-2.761264E-1,7.3038596E-1,-3.4392294E-2,-7.448014E-1,5.385365E-1,9.603632E-1,-4.8890373E-1,4.7425568E-1,-6.3267255E-1,9.3619145E-2,5.006485E-3,4.9469137E-1,-4.229389E-1,7.52508E-1,-9.615698E-2,9.408736E-1,-1.1171527E0,-2.7375874E-1,-2.571688E-1,5.7484627E-1,3.8488024E-1,-1.0202487E0,-2.0924732E-1,4.198263E-1,1.6899318E-1,-7.60057E-1,-1.0132613E0,-5.9766775E-1,-6.63744E-1,4.162394E-1,-5.4393584E-1,1.0499625E-1,-1.6299625E-1,-8.0130374E-1,5.418907E-1,-2.5159365E-1,-1.9732197E-1,6.484567E-1,3.9138278E-1,1.2861882E0,-1.7987344E-1,6.7028004E-1,5.9664547E-2,-6.866032E-1,-3.9876178E-1,-1.2587298E0,-1.0081162E0,4.6449107E-1,1.556386E-1,-9.227753E-1,5.9316677E-1,1.0446423E0,-2.2558074E-1,5.5581474E-1,-8.561412E-1,-1.0288236E-1,-4.1248152E-1,-1.0689896E0,5.9352034E-1,-6.6437477E-1,1.063589E0,4.7662806E-2,-5.426736E-1,-4.8723627E-2,1.7547013E-1,-8.2654744E-1,6.1421245E-1,-3.0502003E-1,8.715552E-1,-1.3599353E-1,5.8287825E-2,7.051883E-1,1.05163E0,5.305409E-1,-2.0840548E-1,3.7036398E-1,1.1064434E-1,-4.6193004E-1,3.8953772E-1,-4.9846634E-1,7.38953E-1,-6.8877436E-2,-1.1518836E0,-3.646104E-1,3.022355E-1,-4.6743162E-2,-9.5919736E-2,-9.2080337E-1,-1.2671198E-1,8.157912E-1,-3.0744013E-1,-7.3992187E-1,3.5605112E-1,-1.7156819E-1,2.6108915E-1,-6.112724E-1,-8.772157E-1,1.3063605E-1,-8.266601E-2,9.644393E-1,-3.9846113E-1,7.807266E-1,8.578643E-1,-4.9145982E-1,4.2237377E-1,1.0672752E0,-5.9693766E-1,4.3460453E-1,-1.2486711E-1,8.506689E-1,7.326871E-1,-1.3900201E-1,8.476215E-1,-4.123188E-1,-6.914753E-1,4.8274755E-1,9.060781E-1,4.9822178E-1,-7.990178E-1,-2.1054147E-1,1.214249E0,4.5974234E-1,-7.0679647E-1,-3.8020223E-1,3.1135812E-1,-5.9737873E-1,-9.1498345E-1,-2.654804E-1,7.603738E-2,7.5733054E-1,-7.6573294E-1,-2.060297E-2,1.0034311E0,2.2335026E-1,-4.2722663E-1,1.5182388E-1,4.03297E-1,-1.7118977E-1,8.654085E-1,3.3858943E-1,1.1285977E0,4.2402422E-1,1.581801E-1,8.6785907E-1,1.5667394E-1,-4.3253103E-1,5.819203E-1,-6.446797E-1,-3.1891522E-1,4.9438798E-1,-8.4791857E-1,-1.8638632E-1,-1.1717066E-1,8.736005E-1,-1.756652E-1,-9.301534E-1,3.4981003E-1,-5.02635E-1,5.9919316E-1,-6.1821425E-1,2.3931444E-1,9.135506E-1,3.2102317E-1,-5.994043E-1,-5.335666E-2,-8.8409024E-1,-1.6256857E-1,7.0933795E-1,-4.250283E-1,1.971905E-1,2.3912882E-2,6.370129E-1,-8.4335303E-1,-2.0528089E-1,-1.1587403E-1,-9.148538E-1,4.6349773E-1,-7.3619545E-1,2.4000965E-1,1.1016876E0,-2.4905936E-1,-1.1838341E0,9.934301E-1,2.4535576E-1,-5.3788867E-2,-9.009045E-1,6.1679924E-1,-5.3690326E-1,7.925365E-1,-6.5225423E-3,-3.495692E-1,9.79949E-2,3.5310408E-1,1.060396E0,2.1654445E-1,8.905903E-1,-5.9528536E-1,1.13883644E-1,-9.089282E-1,-3.2983282E-1,-3.5364455E-1,5.5081356E-1,9.631476E-1,-1.7486571E-1,-1.8022777E-1,-9.0916365E-1,8.2738584E-1,-5.0946915E-1,-3.940211E-2,7.7591026E-1,1.83478E-1,1.0505872E0,-5.228639E-1,3.2238907E-1,-5.776297E-1,6.0525417E-2,3.991528E-1,-4.4372135E-1,-4.5765972E-1,2.796414E-1,1.0287368E0,1.7311811E-1,-3.4530234E-1,8.6490273E-1,1.1888039E0,2.4470331E-1,7.922954E-1,-2.445089E-1,8.365234E-1,-8.925353E-2,1.1443882E0,3.1967536E-1,3.5823426E-1,-3.0839497E-1,-5.5589736E-1,1.3982071E-1,7.86316E-1,-3.6972404E-1,3.0450612E-1,-1.0697703E0,9.9071413E-1,7.671659E-2,-3.9944437E-1,-1.1977248E0,-8.1609386E-1,-6.978115E-2,-7.9177165E-1,1.431331E-1,-3.0439267E-1,-1.1452214E0,-3.455913E-1,6.8882686E-1,7.2123194E-1,-8.306338E-1,-3.9066008E-1,7.6037335E-1,-1.2014307E0,-3.3254528E-1,-5.027448E-1,4.755763E-1,2.8010526E-1,-3.825108E-1,-4.2603326E-1,1.23670325E-1,-9.869353E-1,-5.4101366E-1,-5.5269396E-1,1.17338486E-1,-7.209825E-1,5.82873E-1,7.376129E-1,3.4060966E-2,3.0670267E-1,2.473679E-2,4.0153784E-1,1.1330696E0,-9.7510934E-1,1.0228374E-2,3.1978494E-1,-1.5167966E-1,-8.603748E-1,3.6252323E-1,3.9574373E-1,-8.9185876E-1,3.590019E-1,6.8051517E-1,-6.882173E-1,2.3874225E-1,-1.0108182E0,-1.8688098E-1,-1.5615498E-1,-6.16455E-1,3.4942228E-1,-5.479415E-1,5.9264094E-1,-2.1534747E-1,7.704618E-2,-7.539091E-1,5.2782303E-1,-5.452085E-1,7.48272E-1,-2.6898915E-1,-9.4255126E-1,3.864214E-1,-7.279307E-2,-6.1732423E-1,2.884113E-2,-6.4849263E-1,8.864046E-1,2.1713484E-2,1.16601996E-1,1.043008E0,-4.6461242E-1,6.376994E-2,-3.2773483E-1,-1.0783349E0,-7.707768E-1,6.5556693E-1,3.6206637E-3,9.8715043E-1,-5.39259E-2,7.789928E-1,9.943649E-1,-3.6621E-1,-7.899822E-1,5.7654095E-1,1.5559025E-1,-3.5585344E-1,9.1200346E-1,-3.5198668E-1,2.8689274E-1,8.843377E-1,-1.0735313E0,-1.3781102E-1,1.2385017E0,1.775356E-3,2.3230547E-1,-5.916487E-1,5.0477165E-1,-6.3096024E-2,-1.0914924E0,-3.835855E-1,-1.2068192E-1,-8.849645E-1,-1.19631566E-1,-8.000175E-1,4.5523152E-1,-4.525696E-1,8.924337E-1,2.9648027E-1,7.916948E-1,-5.4564137E-2,4.5937443E-1,-5.446644E-1,6.677883E-1,-2.8559494E-1,9.347201E-1,4.1966712E-1,-8.9871734E-1,-1.0359567E-1,1.2005491E0,-3.1896242E-1,6.1203766E-1,-6.978856E-1,5.685016E-1,-4.41447E-1,-8.2118547E-1,-3.4642205E-1,5.6756597E-2,4.665151E-1,-6.480952E-1,7.264641E-1,-1.175483E0,-4.921905E-1,2.038369E-2,8.624513E-1,-5.008598E-1,1.6427267E-1,-1.3672027E-1,6.790244E-1,-7.067018E-1,4.4145912E-1,7.713847E-1,-1.6336496E-1,4.5650862E-2,-7.502192E-1,-5.466338E-1,4.2474556E-1,1.1513857E0,-4.217605E-2,-2.8817406E-1,2.4504735E-1,-1.0350372E0,4.5553845E-1,-6.660165E-2,-1.0310161E0,-6.245515E-2,8.321806E-1,-7.50767E-1,3.0883825E-1,-6.894284E-1,2.0013703E-1,1.48134E-3,4.2961434E-1,-1.3641523E0,-2.3561306E-1,5.5021536E-1,-2.2270975E-1,-1.0160811E0,4.908741E-2,-3.9117306E-1,-1.1584196E0,4.1699412E-1,-8.555021E-1,3.617559E-1,-6.2605965E-1,-6.74131E-1,1.9278593E-1,-4.557838E-1,-1.0259537E0,1.8656631E-1,8.3529335E-1,-7.347023E-1,-5.5057287E-2,4.5622793E-1,-6.3195885E-3,7.361555E-1,-1.8325104E-1,-6.7010033E-1,3.733453E-1,5.2683276E-1,1.1525303E0,1.7250912E-1,1.0997919E0,-6.01471E-1,2.2632508E-1,-7.350969E-1,-2.9803539E-2,-1.7237787E-1,-8.6973727E-1,4.3949205E-1,-6.5398157E-1,6.736921E-3,-1.0919513E0,-7.344749E-1,-3.3932342E-3,6.48972E-2,-7.140868E-1,4.7176532E-2,7.1114224E-1,1.0065483E-1,-5.9350705E-1,2.0697902E-1,-7.643074E-1,6.409228E-1,-6.523464E-2,7.835939E-2,-5.0861794E-1,4.8524907E-1,1.0840587E-2,1.8621524E-1,-1.22625604E-1,-1.2230351E0,-3.4777302E-1,6.104638E-1,-3.197291E-1,-9.1485333E-1,4.1132832E-1,6.746683E-1,-6.6292197E-1,3.203179E-1,8.650607E-1,-1.1657273E0,7.286092E-1,8.9069873E-1,-2.5047722E-1,1.0949367E0,-3.416891E-1,4.4678786E-1,-2.8763992E-1,-1.7355838E-1,-8.98709E-1,-4.054375E-1,4.0932375E-1,-1.8108943E-1,1.0857432E0,-8.9173347E-1,-3.54168E-1,5.250249E-1,-5.4472834E-1,5.8220875E-1,-4.122706E-1,-6.1062324E-1,4.4133532E-1,-8.15931E-1,1.0660988E0,-9.661725E-1,-2.2086458E-1,-1.4509733E-1,3.4178352E-1,1.9582383E-1,7.877865E-1,8.871866E-1,-9.258335E-1,3.3325803E-1,9.8076624E-1,7.294739E-2,7.4806213E-1,-7.1345717E-1,7.3490715E-1,2.3906218E-1,-5.369015E-1,-8.1391543E-1,3.8635674E-1,-6.176017E-2,6.7819595E-1,-2.9197562E-1,-1.0503837E0,-5.496119E-1,2.292718E-1,2.8858316E-1,-5.5322284E-1,7.7526174E-2,4.834306E-1,7.147903E-1,-2.785488E-1,1.1055521E0,1.2672862E-1,2.4930805E-1,-3.0418813E-1,9.0643996E-1,6.871958E-2,-9.839464E-1,-2.9631856E-1,-7.1266794E-1,-2.6267573E-1,-9.6944577E-1,-2.64144E-1,1.0147669E-1,3.1159472E-1,3.7217793E-1,-8.142879E-1,-3.491168E-2,-3.4700775E-1],"categories":[],"categories_nodes":[],"categories_segments":[],"categories_sizes":[],"default_left":[1,1,1,1,1,1,1,1,0,1,1,0,0,1,0,1,1,1,1,0,1,1,1,1,1,1,1,1,1,0,1,1,1,0,0,0,1,1,1,1,0,1,1,1,1,1,1,1,1,0,1,1,1,1,1,0,0,1,1,1,1,1,0,1,0,0,1,1,1,1,1,1,1,0,1,1,1,1,1,1,1,1,0,1,1,1,1,1,1,0,0,1,1,1,0,0,1,1,1,1,0,1,1,1,1,0,1,1,0,0,1,1,1,0,1,0,0,1,0,0,1,0,1,1,1,1,1,1,1,1,1,0,0,0,0,1,0,0,0,0,1,0,0,1,0,0,0,0,1,1,0,1,1,1,0,1,1,0,1,1,1,1,1,1,1,1,1,1,1,1,1,1,1,0,0,0,0,0,0,1,0,1,1,1,1,1,1,1,1,1,0,1,1,1,1,0,1,1,0,0,1,1,1,1,0,0,1,1,0,0,1,0,0,0,1,1,1,1,0,0,0,0,1,0,1,0,0,1,1,0,1,1,1,1,1,1,1,1,1,1,0,1,1,1,1,0,0,1,1,1,1,0,0,0,0,1,1,1,0,0,0,0,0,1,0,0,1,0,1,0,0,0,0,1,0,0,0,1,0,1,0,0,0,0,0,0,0,1,1,1,1,0,1,1,1,0,0,1,1,0,1,1,0,0,0,0,1,1,1,1,1,1,0,0,0,0,0,0,0,0,0,0,1,0,1,1,1,1,1,1,0,1,0,0,1,1,0,0,1,0,1,0,0,0,1,0,1,0,1,0,1,0,0,1,0,0,0,1,1,1,1,0,0,1,0,0,0,1,0,0,1,0,0,0,0,0,0,1,1,1,1,0,1,1,1,1,0,0,0,1,1,0,0,1,1,0,0,0,0,1,0,0,1,1,0,1,0,1,0,0,1,0,0,1,0,0,1,1,0,1,1,0,1,1,0,1,0,0,0,1,1,0,0,1,1,1,0,1,1,1,1,0,1,0,0,0,0,1,1,1,1,0,0,0,1,0,0,0,1,1,1,0,0,0,0,0,1,0,0,1,0,1,0,0,1,0,1,0,0,1,1,0,0,0,0,0,0,0,0,1,0,0,1,0,0,0,0,0,0,0,0,0,1,0,1,0,0,0,0,0,1,1,0,1,0,0,0,0,0,1,0,1,1,1,0,1,0,0,0,1,1,0,0,1,1,1,0,0,0,1,0,0,0,1,0,1,1,0,0,1,0,0,0,0,0,0,0,0,0,0,0,1,0,1,1,0,0,0,0,0,0,1,1,0,0,0,0,0,0,0,1,0,0,0,1,0,1,0,0,1,1,1,1,0,0,0,0,1,1,1,1,1,0,0,1,1,0,0,0,0,0,0,0,0,0,0,0,0,0,0,0,1,0,0,0,0,1,0,1,0,0,0,0,0,0,0,0],"id":3,"left_children":[1,3,5,7,9,11,13,15,-1,17,19,-1,-1,21,-1,23,25,27,29,-1,31,33,35,37,39,41,43,45,47,-1,49,51,53,-1,-1,-1,55,57,59,61,-1,63,65,67,69,71,73,75,77,-1,79,81,83,85,87,-1,-1,89,91,93,95,97,-1,99,-1,-1,101,103,105,107,109,111,113,-1,115,117,119,121,123,125,127,129,-1,131,133,135,137,139,141,-1,-1,143,145,147,-1,-1,149,151,153,155,-1,157,159,161,163,-1,165,167,-1,-1,169,171,173,-1,175,-1,-1,177,-1,-1,179,-1,181,183,185,187,189,191,193,195,197,-1,-1,-1,-1,199,-1,-1,-1,-1,201,-1,-1,203,-1,-1,-1,-1,205,207,-1,209,211,213,-1,215,217,-1,219,221,223,225,227,229,231,233,235,237,239,241,243,245,247,-1,-1,-1,-1,-1,-1,249,-1,251,253,255,257,259,261,263,265,267,-1,269,271,273,275,-1,277,279,-1,-1,281,283,285,287,-1,-1,289,291,-1,-1,293,-1,-1,-1,295,297,299,301,-1,-1,-1,-1,303,-1,305,-1,-1,307,309,-1,311,313,315,317,319,321,323,325,327,329,-1,331,333,335,337,-1,-1,339,341,343,345,-1,-1,-1,-1,347,349,351,-1,-1,-1,-1,-1,353,-1,-1,355,-1,357,-1,-1,-1,-1,359,-1,-1,-1,361,-1,363,-1,-1,-1,-1,-1,-1,-1,365,367,369,371,-1,373,375,377,-1,-1,379,381,-1,383,385,-1,-1,-1,-1,387,389,391,393,395,397,-1,-1,-1,-1,-1,-1,-1,-1,-1,-1,399,-1,401,403,405,407,409,411,-1,413,-1,-1,415,417,-1,-1,419,-1,421,-1,-1,-1,423,-1,425,-1,427,-1,429,-1,-1,431,-1,-1,-1,433,435,437,439,-1,-1,441,-1,-1,-1,443,-1,-1,445,-1,-1,-1,-1,-1,-1,447,449,451,453,-1,455,457,459,461,-1,-1,-1,463,465,-1,-1,467,469,-1,-1,-1,-1,471,-1,-1,473,475,-1,477,-1,479,-1,-1,481,-1,-1,483,-1,-1,485,487,-1,489,491,-1,493,495,-1,497,-1,-1,-1,499,501,-1,-1,503,505,507,-1,509,511,513,515,-1,517,-1,-1,-1,-1,519,521,523,525,-1,-1,-1,527,-1,-1,-1,529,531,533,-1,-1,-1,-1,-1,535,-1,-1,537,-1,539,-1,-1,541,-1,543,-1,-1,545,547,-1,-1,-1,-1,-1,-1,-1,-1,549,-1,-1,551,-1,-1,-1,-1,-1,-1,-1,-1,-1,553,-1,555,-1,-1,-1,-1,-1,557,559,-1,561,-1,-1,-1,-1,-1,563,-1,565,567,569,-1,571,-1,-1,-1,573,575,-1,-1,577,579,581,-1,-1,-1,583,-1,-1,-1,585,-1,587,589,-1,-1,591,-1,-1,-1,-1,-1,-1,-1,-1,-1,-1,-1,593,-1,595,597,-1,-1,-1,-1,-1,-1,599,601,-1,-1,-1,-1,-1,-1,-1,603,-1,-1,-1,605,-1,607,-1,-1,609,611,613,615,-1,-1,-1,-1,617,619,621,623,625,-1,-1,627,629,-1,-1,-1,-1,-1,-1,-1,-1,-1,-1,-1,-1,-1,-1,-1,631,-1,-1,-1,-1,633,-1,635,-1,-1,-1,-1,-1,-1,-1,-1],"loss_changes":[1.0859582E2,5.0905483E1,2.999916E0,6.8169495E1,1.0376332E1,1.5295639E0,4.506538E0,3.1871304E1,0E0,4.9111824E0,1.3160442E1,0E0,0E0,2.566182E0,0E0,1.15842705E1,1.8391577E1,5.0257435E0,9.506729E0,0E0,8.424822E0,1.7494467E0,1.1542747E0,1.383234E1,2.2643585E0,4.940748E0,1.6868376E1,2.4806054E0,4.12113E0,0E0,6.8569098E0,2.9907649E0,9.670844E-1,0E0,0E0,0E0,3.5960045E-1,8.804512E-1,1.7022748E0,2.7070923E0,0E0,2.256689E0,4.1974297E0,6.496105E0,3.4187202E0,2.5758076E0,1.2517896E0,9.052143E-1,2.625744E0,0E0,5.5558887E0,4.8484716E0,5.3766155E-1,1.8148289E0,2.3765354E0,0E0,0E0,5.5251735E-1,9.06641E-1,1.7758363E0,6.200428E-1,1.2339954E0,0E0,1.7360897E0,0E0,0E0,2.114317E0,2.5132122E0,2.2026043E0,5.539274E0,2.5614095E0,2.7861755E0,3.8832161E0,0E0,4.6901977E-1,1.2045312E0,1.5735931E0,1.978898E0,1.6792259E0,2.7377853E0,4.347465E0,3.6192095E0,0E0,3.3938313E-1,8.4377927E-1,1.2165867E0,1.18783E-1,3.6413186E0,1.4017291E0,0E0,0E0,2.4368954E-1,7.876588E-1,1.1225944E0,0E0,0E0,8.487339E-1,5.2711754E0,9.043379E-1,1.622612E0,0E0,1.1445565E0,2.5143707E0,3.9166017E0,1.4379735E0,0E0,2.3962536E0,2.3746624E0,0E0,0E0,3.0255394E0,2.1208994E0,6.8177485E-1,0E0,1.8043804E-1,0E0,0E0,1.2151089E-1,0E0,0E0,4.7357473E0,0E0,1.7528284E0,9.189334E-1,4.3645984E-1,2.324427E0,1.728611E0,2.6635692E0,3.8637428E0,3.2171888E0,7.046857E-1,0E0,0E0,0E0,0E0,1.5255433E0,0E0,0E0,0E0,0E0,1.6629658E0,0E0,0E0,1.2233331E0,0E0,0E0,0E0,0E0,3.4124515E0,2.2169232E0,0E0,1.6645832E0,5.754912E-2,2.659893E-1,0E0,1.3842583E0,1.9014277E0,0E0,2.107215E-2,3.4250903E-1,9.0388966E-1,1.5928388E-1,2.3783424E0,5.701434E-1,3.3968306E-1,3.877945E-1,3.3242555E0,3.013761E0,2.2796724E0,2.5183172E0,2.7986946E0,1.0629642E0,1.1507483E0,0E0,0E0,0E0,0E0,0E0,0E0,2.491182E0,0E0,1.8292601E0,3.5796404E-2,2.5629985E0,1.2212191E0,6.94113E-1,3.873195E-1,5.6897163E-1,3.766756E-1,5.0222397E-1,0E0,2.0802164E0,3.240676E-1,2.1898406E0,1.2707746E-1,0E0,1.3277313E0,2.117897E0,0E0,0E0,6.1341715E-1,2.1351695E-1,7.013917E-2,5.716915E-1,0E0,0E0,8.8895154E-1,1.845758E-1,0E0,0E0,2.7333307E0,0E0,0E0,0E0,1.2604852E0,2.998232E0,5.622187E0,9.919258E-1,0E0,0E0,0E0,0E0,4.789884E-1,0E0,1.0931772E0,0E0,0E0,1.0605807E0,2.330451E0,0E0,7.095529E-1,5.967941E-1,2.0691042E0,5.272274E-1,1.0704515E0,2.4785426E0,1.792346E0,1.4631004E0,1.6716943E0,1.8205397E0,0E0,3.7732568E0,1.5732605E0,1.2939453E0,1.2282109E0,0E0,0E0,1.4152807E0,1.6307592E-1,1.8136634E0,3.4446273E0,0E0,0E0,0E0,0E0,1.7820629E0,1.0737066E0,1.0206623E0,0E0,0E0,0E0,0E0,0E0,6.336461E-1,0E0,0E0,3.0278522E-1,0E0,7.1697235E-3,0E0,0E0,0E0,0E0,2.185051E0,0E0,0E0,0E0,2.4486887E0,0E0,5.684333E-1,0E0,0E0,0E0,0E0,0E0,0E0,0E0,5.3264454E-2,3.5876083E-1,1.5024061E0,2.1472755E-1,0E0,1.7380111E0,1.9274554E0,1.0931149E0,0E0,0E0,2.183106E0,1.3668499E0,0E0,1.0646925E0,1.0443411E0,0E0,0E0,0E0,0E0,6.8099546E-1,1.3022249E0,1.4766732E0,2.7335203E0,2.3367212E0,1.475687E-1,0E0,0E0,0E0,0E0,0E0,0E0,0E0,0E0,0E0,0E0,7.714467E-1,0E0,1.0211828E0,1.6206009E0,3.1452397E-1,1.8842988E0,2.7604973E0,1.0644155E0,0E0,8.587481E-1,0E0,0E0,2.560689E0,2.9143229E0,0E0,0E0,1.0779904E0,0E0,2.3063476E0,0E0,0E0,0E0,1.2561083E-1,0E0,8.7103844E-1,0E0,1.1859986E0,0E0,1.2697091E0,0E0,0E0,3.1550422E-1,0E0,0E0,0E0,5.6679535E-1,6.8245924E-1,1.0392582E0,2.027944E0,0E0,0E0,2.09028E-1,0E0,0E0,0E0,7.235834E-1,0E0,0E0,1.1202677E0,0E0,0E0,0E0,0E0,0E0,0E0,4.9285994E0,1.6603355E0,4.66192E-1,3.5694947E0,0E0,1.9952314E0,2.0036628E0,1.0000753E0,7.8213155E-2,0E0,0E0,0E0,1.9750643E0,3.6879492E-1,0E0,0E0,5.969825E-1,5.3045726E-1,0E0,0E0,0E0,0E0,1.2088965E0,0E0,0E0,1.860092E0,1.7591653E0,0E0,5.548399E-1,0E0,2.6210494E0,0E0,0E0,1.29609E0,0E0,0E0,3.2771048E-1,0E0,0E0,2.8764396E0,8.082361E-1,0E0,1.4634764E0,2.1464179E0,0E0,8.634449E-1,1.2400365E-1,0E0,7.344818E-1,0E0,0E0,0E0,5.7832664E-1,1.5688641E0,0E0,0E0,1.45504E-1,1.8109711E0,1.1077981E0,0E0,1.000946E0,4.327917E-2,5.0155926E-1,4.107353E-1,0E0,1.6246277E-1,0E0,0E0,0E0,0E0,1.0887194E0,2.380983E0,7.1321964E-1,2.6835454E0,0E0,0E0,0E0,8.370974E-1,0E0,0E0,0E0,7.8144324E-1,2.4339867E-1,3.1274414E0,0E0,0E0,0E0,0E0,0E0,2.1073532E0,0E0,0E0,3.639353E-1,0E0,1.1051928E0,0E0,0E0,3.734647E-1,0E0,8.6217314E-1,0E0,0E0,2.072876E0,4.4759297E-1,0E0,0E0,0E0,0E0,0E0,0E0,0E0,0E0,5.528951E-1,0E0,0E0,1.7489019E-1,0E0,0E0,0E0,0E0,0E0,0E0,0E0,0E0,0E0,9.7702794E-2,0E0,1.5861797E-1,0E0,0E0,0E0,0E0,0E0,1.0500515E0,2.1287322E0,0E0,2.5450816E0,0E0,0E0,0E0,0E0,0E0,5.4698944E-1,0E0,4.7791452E0,1.4305364E0,3.8357627E0,0E0,1.8604712E0,0E0,0E0,0E0,1.9650888E-1,7.943022E-1,0E0,0E0,1.7618501E0,3.147745E-1,1.6650156E0,0E0,0E0,0E0,2.1304913E0,0E0,0E0,0E0,1.5376304E0,0E0,3.8601458E0,8.03462E-1,0E0,0E0,4.659665E-1,0E0,0E0,0E0,0E0,0E0,0E0,0E0,0E0,0E0,0E0,0E0,4.662347E-2,0E0,4.513029E0,3.5909843E-1,0E0,0E0,0E0,0E0,0E0,0E0,9.579184E-1,3.0207067E0,0E0,0E0,0E0,0E0,0E0,0E0,0E0,7.32318E-1,0E0,0E0,0E0,1.7801234E0,0E0,5.3271794E-1,0E0,0E0,6.0212612E-2,6.8935907E-1,9.6127856E-1,9.519452E-2,0E0,0E0,0E0,0E0,1.017652E0,7.8078175E-1,4.163592E-1,4.6167517E-1,2.2239947E-1,0E0,0E0,3.2952666E-2,3.1411886E-2,0E0,0E0,0E0,0E0,0E0,0E0,0E0,0E0,0E0,0E0,0E0,0E0,0E0,0E0,0E0,5.562037E-3,0E0,0E0,0E0,0E0,1.4189739E0,0E0,5.2573487E-2,0E0,0E0,0E0,0E0,0E0,0E0,0E0,0E0],"parents":[2147483647,0,0,1,1,2,2,3,3,4,4,5,5,6,6,7,7,9,9,10,10,13,13,15,15,16,16,17,17,18,18,20,20,21,21,22,22,23,23,24,24,25,25,26,26,27,27,28,28,30,30,31,31,32,32,36,36,37,37,38,38,39,39,41,41,42,42,43,43,44,44,45,45,46,46,47,47,48,48,50,50,51,51,52,52,53,53,54,54,57,57,58,58,59,59,60,60,61,61,63,63,66,66,67,67,68,68,69,69,70,70,71,71,72,72,74,74,75,75,76,76,77,77,78,78,79,79,80,80,81,81,83,83,84,84,85,85,86,86,87,87,88,88,91,91,92,92,93,93,96,96,97,97,98,98,99,99,101,101,102,102,103,103,104,104,106,106,107,107,110,110,111,111,112,112,114,114,117,117,120,120,122,122,123,123,124,124,125,125,126,126,127,127,128,128,129,129,130,130,135,135,140,140,143,143,148,148,149,149,151,151,152,152,153,153,155,155,156,156,158,158,159,159,160,160,161,161,162,162,163,163,164,164,165,165,166,166,167,167,168,168,169,169,170,170,171,171,172,172,179,179,181,181,182,182,183,183,184,184,185,185,186,186,187,187,188,188,189,189,191,191,192,192,193,193,194,194,196,196,197,197,200,200,201,201,202,202,203,203,206,206,207,207,210,210,214,214,215,215,216,216,217,217,222,222,224,224,227,227,228,228,230,230,231,231,232,232,233,233,234,234,235,235,236,236,237,237,238,238,239,239,241,241,242,242,243,243,244,244,247,247,248,248,249,249,250,250,255,255,256,256,257,257,263,263,266,266,268,268,273,273,277,277,279,279,287,287,288,288,289,289,290,290,292,292,293,293,294,294,297,297,298,298,300,300,301,301,306,306,307,307,308,308,309,309,310,310,311,311,322,322,324,324,325,325,326,326,327,327,328,328,329,329,331,331,334,334,335,335,338,338,340,340,344,344,346,346,348,348,350,350,353,353,357,357,358,358,359,359,360,360,363,363,367,367,370,370,377,377,378,378,379,379,380,380,382,382,383,383,384,384,385,385,389,389,390,390,393,393,394,394,399,399,402,402,403,403,405,405,407,407,410,410,413,413,416,416,417,417,419,419,420,420,422,422,423,423,425,425,429,429,430,430,433,433,434,434,435,435,437,437,438,438,439,439,440,440,442,442,447,447,448,448,449,449,450,450,454,454,458,458,459,459,460,460,466,466,469,469,471,471,474,474,476,476,479,479,480,480,489,489,492,492,502,502,504,504,510,510,511,511,513,513,519,519,521,521,522,522,523,523,525,525,529,529,530,530,533,533,534,534,535,535,539,539,543,543,545,545,546,546,549,549,561,561,563,563,564,564,571,571,572,572,580,580,584,584,586,586,589,589,590,590,591,591,592,592,597,597,598,598,599,599,600,600,601,601,604,604,605,605,621,621,626,626,628,628],"right_children":[2,4,6,8,10,12,14,16,-1,18,20,-1,-1,22,-1,24,26,28,30,-1,32,34,36,38,40,42,44,46,48,-1,50,52,54,-1,-1,-1,56,58,60,62,-1,64,66,68,70,72,74,76,78,-1,80,82,84,86,88,-1,-1,90,92,94,96,98,-1,100,-1,-1,102,104,106,108,110,112,114,-1,116,118,120,122,124,126,128,130,-1,132,134,136,138,140,142,-1,-1,144,146,148,-1,-1,150,152,154,156,-1,158,160,162,164,-1,166,168,-1,-1,170,172,174,-1,176,-1,-1,178,-1,-1,180,-1,182,184,186,188,190,192,194,196,198,-1,-1,-1,-1,200,-1,-1,-1,-1,202,-1,-1,204,-1,-1,-1,-1,206,208,-1,210,212,214,-1,216,218,-1,220,222,224,226,228,230,232,234,236,238,240,242,244,246,248,-1,-1,-1,-1,-1,-1,250,-1,252,254,256,258,260,262,264,266,268,-1,270,272,274,276,-1,278,280,-1,-1,282,284,286,288,-1,-1,290,292,-1,-1,294,-1,-1,-1,296,298,300,302,-1,-1,-1,-1,304,-1,306,-1,-1,308,310,-1,312,314,316,318,320,322,324,326,328,330,-1,332,334,336,338,-1,-1,340,342,344,346,-1,-1,-1,-1,348,350,352,-1,-1,-1,-1,-1,354,-1,-1,356,-1,358,-1,-1,-1,-1,360,-1,-1,-1,362,-1,364,-1,-1,-1,-1,-1,-1,-1,366,368,370,372,-1,374,376,378,-1,-1,380,382,-1,384,386,-1,-1,-1,-1,388,390,392,394,396,398,-1,-1,-1,-1,-1,-1,-1,-1,-1,-1,400,-1,402,404,406,408,410,412,-1,414,-1,-1,416,418,-1,-1,420,-1,422,-1,-1,-1,424,-1,426,-1,428,-1,430,-1,-1,432,-1,-1,-1,434,436,438,440,-1,-1,442,-1,-1,-1,444,-1,-1,446,-1,-1,-1,-1,-1,-1,448,450,452,454,-1,456,458,460,462,-1,-1,-1,464,466,-1,-1,468,470,-1,-1,-1,-1,472,-1,-1,474,476,-1,478,-1,480,-1,-1,482,-1,-1,484,-1,-1,486,488,-1,490,492,-1,494,496,-1,498,-1,-1,-1,500,502,-1,-1,504,506,508,-1,510,512,514,516,-1,518,-1,-1,-1,-1,520,522,524,526,-1,-1,-1,528,-1,-1,-1,530,532,534,-1,-1,-1,-1,-1,536,-1,-1,538,-1,540,-1,-1,542,-1,544,-1,-1,546,548,-1,-1,-1,-1,-1,-1,-1,-1,550,-1,-1,552,-1,-1,-1,-1,-1,-1,-1,-1,-1,554,-1,556,-1,-1,-1,-1,-1,558,560,-1,562,-1,-1,-1,-1,-1,564,-1,566,568,570,-1,572,-1,-1,-1,574,576,-1,-1,578,580,582,-1,-1,-1,584,-1,-1,-1,586,-1,588,590,-1,-1,592,-1,-1,-1,-1,-1,-1,-1,-1,-1,-1,-1,594,-1,596,598,-1,-1,-1,-1,-1,-1,600,602,-1,-1,-1,-1,-1,-1,-1,604,-1,-1,-1,606,-1,608,-1,-1,610,612,614,616,-1,-1,-1,-1,618,620,622,624,626,-1,-1,628,630,-1,-1,-1,-1,-1,-1,-1,-1,-1,-1,-1,-1,-1,-1,-1,632,-1,-1,-1,-1,634,-1,636,-1,-1,-1,-1,-1,-1,-1,-1],"split_conditions":[9.97275E-1,9.994677E-1,8.7275445E-1,2.5904953E-4,6.8559353E-3,8.4816235E-1,9.1331416E-1,2.3623932E-2,5.8789796E-1,7.1685447E-4,9.896919E-1,-4.8498762E-1,2.158785E-2,8.050571E-1,-4.3490905E-1,6.5868266E-2,5.1472056E-1,2.8303139E-2,9.898404E-1,5.351196E-1,3.8537675E-1,6.346959E-1,5E-1,2.1059313E-4,5.359582E-1,1.3762301E-2,1.8231595E-1,2.3797024E-2,1.4336663E-3,4.9476087E-1,4.6846874E-2,3.020845E-1,8.1187624E-1,-1.2854628E-1,5.0140166E-1,-4.1570917E-1,9.024451E-1,8.982036E-3,9.92772E-1,5.258792E-1,4.441185E-1,5.0523955E-1,9.991549E-1,1.3824814E-2,9.9952435E-1,9.456497E-3,2.5574084E-2,5E-1,1.5062024E-1,4.8611766E-1,7.5174654E-1,2.2357489E-1,3.3834526E-1,7.53493E-1,7.2635007E-1,1.3814424E-1,-1.3720414E-1,6.9624633E-3,1.8415805E-2,1.10804275E-1,1.1614263E-2,1.972281E-2,-2.1354058E-1,5.0001633E-1,-6.219805E-1,4.6374378E-1,7.918878E-2,6.206728E-1,2.610701E-2,2.6308922E-2,2.000577E-1,4.3413174E-1,1.7964073E-2,5.282192E-1,2.7097277E-2,5E-1,3.5653692E-1,4.056081E-2,8.236028E-1,1.7689246E-1,4.0141696E-1,5.1821357E-1,-3.797102E-1,3.1391975E-2,3.6835623E-1,5E-1,5E-1,4.7489613E-1,8.4481037E-1,2.0745383E-1,-1.5111127E-1,1.6475476E-2,1.9555878E-2,1.1726547E-2,3.6519298E-1,-1.7196147E-2,5.5648508E-3,1.6293561E-2,8.994255E-1,1.2815917E-1,2.3712784E-1,2.6958805E-2,1.3621913E-1,3.0997578E-2,8.1966884E-2,-2.1146946E-1,6.1331704E-2,8.6576843E-1,4.704368E-1,-5.5857635E-1,3.1166917E-1,5E-1,6.1676645E-1,1.9244012E-1,5E-1,-1.0462366E-1,2.0991315E-1,1.6292414E-1,-3.800285E-1,-5.0663066E-1,1.7351142E-1,-3.31872E-1,5.8507985E-1,9.776012E-1,6.74801E-1,5E-1,6.063864E-1,2.2257385E-1,8.558129E-1,1.1409531E-2,7.767757E-1,1.9569139E-1,6.430941E-1,-8.993672E-2,3.3514002E-1,5.7924294E-1,-3.433016E-1,-1.9938089E-1,-6.293649E-1,-5.040581E-1,2.346623E-1,7.78193E-2,-4.6138766E-1,1.5838746E-2,5.2232116E-1,-1.1279037E-1,2.7790737E-1,-4.280706E-1,1.4720559E-2,4.399377E-3,-5.344948E-1,9.795174E-1,1.8442765E-2,3.208583E-1,2.3831403E-2,1.751612E-2,1.420416E-1,8.7735064E-2,2.8418162E-1,1.0520425E-1,3.041417E-1,5.713573E-1,8.8208936E-2,3.9409764E-2,1.3610663E-1,9.747728E-1,7.562375E-1,3.2940227E-1,7.5948286E-1,2.5735635E-1,7.507485E-1,1.1776447E-1,3.2887147E-3,3.694765E-1,-3.4438718E-2,-5.759418E-1,-1.823052E-1,1.5111776E-1,-2.3371581E-2,5.6212574E-1,-4.6040168E-1,8.092259E-1,6.6717213E-1,6.695138E-1,2.4356394E-1,5.614384E-1,7.499019E-1,6.4246505E-1,9.538138E-2,3.1037924E-1,6.5318026E-2,8.1536925E-1,7.684631E-1,9.2415166E-1,8.9006174E-1,4.2893216E-1,3.0913174E-1,7.6047903E-1,5.336376E-1,-2.9846883E-1,7.337466E-1,6.0025096E-1,6.2151736E-1,5E-1,-6.9501005E-2,4.2381075E-1,1.322121E-2,6.837064E-4,2.4137378E-1,4.5303905E-1,2.561249E-1,-3.995089E-1,-1.05270736E-1,6.071245E-1,2.0678513E-2,4.2880222E-2,9.857931E-1,1.0362584E-1,-2.9868937E-1,-4.5749173E-1,-1.327402E-1,3.801869E-2,3.3882236E-1,-3.8286647E-1,2.0642453E-1,5.0171554E-1,1.1167513E-1,5.736028E-1,1.320429E-1,2.016485E-1,7.0758486E-1,9.889709E-1,6.9061875E-1,8.478275E-1,7.43014E-1,9.9703526E-1,9.316859E-1,7.464024E-1,6.3306606E-1,5E-1,-3.2233986E-1,2.3833372E-1,6.589321E-1,6.724052E-1,3.866461E-1,-5.858533E-2,4.3680024E-1,1.24048E-4,2.0459082E-2,8.064851E-2,5.639857E-2,2.9959658E-1,-3.0910712E-1,1.1965722E-1,4.567753E-1,5.097305E-1,2.8579134E-1,6.9011974E-1,-4.4204512E-1,-8.1284285E-2,3.5466897E-1,-2.1251415E-1,9.859525E-2,4.3063873E-1,3.1850645E-1,-4.2167652E-1,3.8373256E-1,-5.7937015E-2,4.6540505E-1,2.3174886E-1,-3.6809772E-1,1.20004825E-1,5.508438E-1,8.5454094E-1,-5.9191704E-1,4.9671504E-1,1.2267788E-1,1.17015965E-1,-4.5045224E-1,5E-1,-2.6845163E-1,3.9626825E-1,-3.2612712E-3,-1.747846E-1,4.899745E-2,1.7655204E-1,5.30198E-1,1.2974052E-2,1.2484515E-2,2.1038212E-2,1.6716566E-2,-4.544641E-1,1.8962076E-2,2.9078114E-3,3.195772E-1,4.815738E-1,-8.7432854E-2,3.083314E-2,4.5883232E-1,